{"learner":{"attributes":{"scikit_learn":"{\"_estimator_type\": \"classifier\"}"},"feature_names":["Department","Priority","Method Received Description","hour","day_of_week","month","City Council District_1,3","City Council District_10","City Council District_11","City Council District_11,13","City Council District_12","City Council District_13","City Council District_13,14","City Council District_13,14,9","City Council District_13,9","City Council District_14","City Council District_14,9","City Council District_2","City Council District_2,14","City Council District_2,6","City Council District_3","City Council District_3,4","City Council District_3,6","City Council District_4","City Council District_5","City Council District_5,7","City Council District_5,8","City Council District_6","City Council District_6,13","City Council District_7","City Council District_7,8","City Council District_7,9","City Council District_8","City Council District_9","City Council District_nan","Service Request Type_Animal Loose - DAS","Service Request Type_Chronic Noise Complaint - DPD","Service Request Type_Code Concern - CCS","Service Request Type_Complaint/Compliment - 311","Service Request Type_Dead Animal Pick Up - DAS","Service Request Type_Extra Police Patrol - DPD","Service Request Type_Homeless Encampment - OHS","Service Request Type_Other","Service Request Type_Park Maintenance/Misc - PKR","Service Request Type_Parking - Report a Violation - TPW","Service Request Type_Parking - Report a Violation - TRN","Service Request Type_Sanitation Missed Garbage - SAN","Service Request Type_Sanitation Roll Cart Maintenance/Delivery - SAN","Service Request Type_Storm Sewer Line Locate - DWU","Service Request Type_Water/Wastewater Line Locate - 311","ERT (Estimated Response Time)_1 Calendar Days","ERT (Estimated Response Time)_10 Business Days","ERT (Estimated Response Time)_10 Calendar Days","ERT (Estimated Response Time)_110 Business Days","ERT (Estimated Response Time)_12 Hours","ERT (Estimated Response Time)_120 Business Days","ERT (Estimated Response Time)_14 Business Days","ERT (Estimated Response Time)_15 Calendar Days","ERT (Estimated Response Time)_2 Business Days","ERT (Estimated Response Time)_2 Calendar Days","ERT (Estimated Response Time)_2 Hours","ERT (Estimated Response Time)_3 Business Days","ERT (Estimated Response Time)_3 Calendar Days","ERT (Estimated Response Time)_3 Hours","ERT (Estimated Response Time)_4 Business Days","ERT (Estimated Response Time)_4 Hours","ERT (Estimated Response Time)_5 Business Days","ERT (Estimated Response Time)_5 Calendar Days","ERT (Estimated Response Time)_6 Hours","ERT (Estimated Response Time)_7 Business Days","ERT (Estimated Response Time)_72 Hours","ERT (Estimated Response Time)_Business Days","ERT (Estimated Response Time)_nan"],"feature_types":["float","float","float","float","float","float","float","float","float","float","float","float","float","float","float","float","float","float","float","float","float","float","float","float","float","float","float","float","float","float","float","float","float","float","float","float","float","float","float","float","float","float","float","float","float","float","float","float","float","float","float","float","float","float","float","float","float","float","float","float","float","float","float","float","float","float","float","float","float","float","float","float","float"],"gradient_booster":{"model":{"cats":{"enc":[],"feature_segments":[],"sorted_idx":[]},"gbtree_model_param":{"num_parallel_tree":"1","num_trees":"500"},"iteration_indptr":[0,1,2,3,4,5,6,7,8,9,10,11,12,13,14,15,16,17,18,19,20,21,22,23,24,25,26,27,28,29,30,31,32,33,34,35,36,37,38,39,40,41,42,43,44,45,46,47,48,49,50,51,52,53,54,55,56,57,58,59,60,61,62,63,64,65,66,67,68,69,70,71,72,73,74,75,76,77,78,79,80,81,82,83,84,85,86,87,88,89,90,91,92,93,94,95,96,97,98,99,100,101,102,103,104,105,106,107,108,109,110,111,112,113,114,115,116,117,118,119,120,121,122,123,124,125,126,127,128,129,130,131,132,133,134,135,136,137,138,139,140,141,142,143,144,145,146,147,148,149,150,151,152,153,154,155,156,157,158,159,160,161,162,163,164,165,166,167,168,169,170,171,172,173,174,175,176,177,178,179,180,181,182,183,184,185,186,187,188,189,190,191,192,193,194,195,196,197,198,199,200,201,202,203,204,205,206,207,208,209,210,211,212,213,214,215,216,217,218,219,220,221,222,223,224,225,226,227,228,229,230,231,232,233,234,235,236,237,238,239,240,241,242,243,244,245,246,247,248,249,250,251,252,253,254,255,256,257,258,259,260,261,262,263,264,265,266,267,268,269,270,271,272,273,274,275,276,277,278,279,280,281,282,283,284,285,286,287,288,289,290,291,292,293,294,295,296,297,298,299,300,301,302,303,304,305,306,307,308,309,310,311,312,313,314,315,316,317,318,319,320,321,322,323,324,325,326,327,328,329,330,331,332,333,334,335,336,337,338,339,340,341,342,343,344,345,346,347,348,349,350,351,352,353,354,355,356,357,358,359,360,361,362,363,364,365,366,367,368,369,370,371,372,373,374,375,376,377,378,379,380,381,382,383,384,385,386,387,388,389,390,391,392,393,394,395,396,397,398,399,400,401,402,403,404,405,406,407,408,409,410,411,412,413,414,415,416,417,418,419,420,421,422,423,424,425,426,427,428,429,430,431,432,433,434,435,436,437,438,439,440,441,442,443,444,445,446,447,448,449,450,451,452,453,454,455,456,457,458,459,460,461,462,463,464,465,466,467,468,469,470,471,472,473,474,475,476,477,478,479,480,481,482,483,484,485,486,487,488,489,490,491,492,493,494,495,496,497,498,499,500],"tree_info":[0,0,0,0,0,0,0,0,0,0,0,0,0,0,0,0,0,0,0,0,0,0,0,0,0,0,0,0,0,0,0,0,0,0,0,0,0,0,0,0,0,0,0,0,0,0,0,0,0,0,0,0,0,0,0,0,0,0,0,0,0,0,0,0,0,0,0,0,0,0,0,0,0,0,0,0,0,0,0,0,0,0,0,0,0,0,0,0,0,0,0,0,0,0,0,0,0,0,0,0,0,0,0,0,0,0,0,0,0,0,0,0,0,0,0,0,0,0,0,0,0,0,0,0,0,0,0,0,0,0,0,0,0,0,0,0,0,0,0,0,0,0,0,0,0,0,0,0,0,0,0,0,0,0,0,0,0,0,0,0,0,0,0,0,0,0,0,0,0,0,0,0,0,0,0,0,0,0,0,0,0,0,0,0,0,0,0,0,0,0,0,0,0,0,0,0,0,0,0,0,0,0,0,0,0,0,0,0,0,0,0,0,0,0,0,0,0,0,0,0,0,0,0,0,0,0,0,0,0,0,0,0,0,0,0,0,0,0,0,0,0,0,0,0,0,0,0,0,0,0,0,0,0,0,0,0,0,0,0,0,0,0,0,0,0,0,0,0,0,0,0,0,0,0,0,0,0,0,0,0,0,0,0,0,0,0,0,0,0,0,0,0,0,0,0,0,0,0,0,0,0,0,0,0,0,0,0,0,0,0,0,0,0,0,0,0,0,0,0,0,0,0,0,0,0,0,0,0,0,0,0,0,0,0,0,0,0,0,0,0,0,0,0,0,0,0,0,0,0,0,0,0,0,0,0,0,0,0,0,0,0,0,0,0,0,0,0,0,0,0,0,0,0,0,0,0,0,0,0,0,0,0,0,0,0,0,0,0,0,0,0,0,0,0,0,0,0,0,0,0,0,0,0,0,0,0,0,0,0,0,0,0,0,0,0,0,0,0,0,0,0,0,0,0,0,0,0,0,0,0,0,0,0,0,0,0,0,0,0,0,0,0,0,0,0,0,0,0,0,0,0,0,0,0,0,0,0,0,0,0,0,0,0,0,0,0,0,0,0,0,0,0,0,0,0,0,0,0,0,0,0,0,0,0,0,0,0,0,0,0,0,0,0,0,0,0,0,0,0,0],"trees":[{"base_weights":[-0E0,1.848843E0,-5.623006E-1,1.61651E0,2.3603926E0,-7.1036667E-1,8.903282E-1,1.2564399E0,1.9367121E0,2.3789418E0,1.1035837E-1,-8.3661616E-1,1.3632731E0,7.3969394E-1,1.3619511E0,1.5391772E0,7.0079726E-1,1.785173E0,2.0965533E0,1.1931403E-1,1.06437914E-1,-4.4437417E-1,-1.0684102E0,9.228435E-1,1.5538044E0,6.0897875E-1,1.1050854E0,1.450327E0,-5.622518E-2,9.915326E-1,1.5985694E0,1.5695586E0,-1.3851237E-1,1.5911354E0,1.9761591E0,1.7713803E0,2.1409934E0,-6.547389E-1,4.3636863E-3,-9.237811E-1,-1.3984311E0,3.8789293E-1,1.1804312E0,1.5976031E0,-1.8466553E-1,8.286774E-1,4.5947596E-1,8.980943E-2,1.0788584E0,1.373551E0,8.767374E-2,7.91897E-2,-7.4565195E-2,8.487832E-2,3.198221E-2,6.289357E-2,8.668836E-2,6.524777E-2,1.0090975E-1,-2.3184448E-2,3.7912738E-2,9.420787E-2,7.6386586E-2,9.2826776E-2,1.0218181E-1,1.0567664E-1,8.089324E-2,1.1585249E-1,1.04006164E-1,-4.401215E-2,-1.555603E-2,1.6369354E-2,-5.408124E-2,-5.8282744E-2,-3.8577385E-2,-7.356716E-2,-5.7985872E-2,3.1911496E-2,1.3481997E-2,8.9642674E-2,3.6735397E-2,9.7529255E-2,7.0075184E-2,-4.6465147E-2,2.9480213E-2,4.285022E-2,-4.9019544E-3,1.4883389E-2,3.6097493E-2,5.6596022E-2,-5.0688792E-2,7.52146E-2,5.60984E-2],"categories":[],"categories_nodes":[],"categories_segments":[],"categories_sizes":[],"default_left":[0,0,0,0,0,0,0,0,0,0,0,0,0,0,0,0,0,0,0,0,0,0,0,0,0,0,0,0,0,0,0,0,0,0,0,0,0,0,0,0,0,0,0,0,0,0,0,0,0,0,0,0,0,0,0,0,0,0,0,0,0,0,0,0,0,0,0,0,0,0,0,0,0,0,0,0,0,0,0,0,0,0,0,0,0,0,0,0,0,0,0,0,0],"id":0,"left_children":[1,3,5,7,9,11,13,15,17,19,-1,21,23,25,27,29,31,33,35,-1,-1,37,39,41,43,45,47,49,51,53,55,57,59,61,63,65,67,69,71,73,75,77,79,81,83,85,87,-1,89,91,-1,-1,-1,-1,-1,-1,-1,-1,-1,-1,-1,-1,-1,-1,-1,-1,-1,-1,-1,-1,-1,-1,-1,-1,-1,-1,-1,-1,-1,-1,-1,-1,-1,-1,-1,-1,-1,-1,-1,-1,-1,-1,-1],"loss_changes":[9.682617E4,2.5734453E3,1.5361953E4,1.7176836E3,8.308594E0,1.6969736E4,4.6715088E2,1.1035342E3,1.8361719E2,4.453125E-1,0E0,5.5535E3,3.0906738E2,2.3787207E2,2.0044067E2,1.4826172E2,1.7343864E3,1.4425684E2,4.745117E1,0E0,0E0,2.1425845E3,1.8300078E3,1.5442761E2,1.9822607E2,1.2051233E2,1.9725342E1,2.9859375E1,2.2955528E2,1.1230841E2,1.8898145E2,1.331289E2,3.5386533E2,3.1624023E1,8.517578E0,1.7634033E1,2.5978516E1,1.1967163E3,2.5424656E3,9.8131445E2,1.9990039E2,1.0514553E1,2.0473376E2,1.6934082E2,3.888055E1,3.946167E1,9.3082245E1,0E0,1.438717E2,3.6129395E1,0E0,0E0,0E0,0E0,0E0,0E0,0E0,0E0,0E0,0E0,0E0,0E0,0E0,0E0,0E0,0E0,0E0,0E0,0E0,0E0,0E0,0E0,0E0,0E0,0E0,0E0,0E0,0E0,0E0,0E0,0E0,0E0,0E0,0E0,0E0,0E0,0E0,0E0,0E0,0E0,0E0,0E0,0E0],"parents":[2147483647,0,0,1,1,2,2,3,3,4,4,5,5,6,6,7,7,8,8,9,9,11,11,12,12,13,13,14,14,15,15,16,16,17,17,18,18,21,21,22,22,23,23,24,24,25,25,26,26,27,27,28,28,29,29,30,30,31,31,32,32,33,33,34,34,35,35,36,36,37,37,38,38,39,39,40,40,41,41,42,42,43,43,44,44,45,45,46,46,48,48,49,49],"right_children":[2,4,6,8,10,12,14,16,18,20,-1,22,24,26,28,30,32,34,36,-1,-1,38,40,42,44,46,48,50,52,54,56,58,60,62,64,66,68,70,72,74,76,78,80,82,84,86,88,-1,90,92,-1,-1,-1,-1,-1,-1,-1,-1,-1,-1,-1,-1,-1,-1,-1,-1,-1,-1,-1,-1,-1,-1,-1,-1,-1,-1,-1,-1,-1,-1,-1,-1,-1,-1,-1,-1,-1,-1,-1,-1,-1,-1,-1],"split_conditions":[-1.3161044E0,3.5686145E0,3.6194627E0,2.7910964E0,1.8924749E0,4.9038677E0,1.3473849E0,8.02295E-1,-1.1964939E0,4.7639194E0,1.1035837E-1,-6.4128146E-2,2.7910964E0,8.656764E-1,1.1063287E0,-1.1707726E0,8.417644E-1,6.674436E0,8.584142E-1,1.1931403E-1,1.06437914E-1,1.1063287E0,8.02295E-1,-7.143598E-1,1.3473849E0,-2.878848E-1,-3.712927E-1,3.1027296E0,-6.4128146E-2,8.417644E-1,-1.1964939E0,-1.1964939E0,1.8924749E0,-1.005921E0,-4.318169E-1,-7.143598E-1,-7.143598E-1,-1.422967E0,4.5600204E0,1.1063287E0,1.8924749E0,-1.2974821E0,7.434459E-1,-4.227987E-1,1.8924749E0,1.1063287E0,-3.9412044E-2,8.980943E-2,1.1063287E0,6.439483E0,8.767374E-2,7.91897E-2,-7.4565195E-2,8.487832E-2,3.198221E-2,6.289357E-2,8.668836E-2,6.524777E-2,1.0090975E-1,-2.3184448E-2,3.7912738E-2,9.420787E-2,7.6386586E-2,9.2826776E-2,1.0218181E-1,1.0567664E-1,8.089324E-2,1.1585249E-1,1.04006164E-1,-4.401215E-2,-1.555603E-2,1.6369354E-2,-5.408124E-2,-5.8282744E-2,-3.8577385E-2,-7.356716E-2,-5.7985872E-2,3.1911496E-2,1.3481997E-2,8.9642674E-2,3.6735397E-2,9.7529255E-2,7.0075184E-2,-4.6465147E-2,2.9480213E-2,4.285022E-2,-4.9019544E-3,1.4883389E-2,3.6097493E-2,5.6596022E-2,-5.0688792E-2,7.52146E-2,5.60984E-2],"split_indices":[1,39,65,50,4,49,4,4,0,10,0,0,50,3,42,3,0,35,2,0,0,42,4,5,4,4,1,15,0,0,0,0,4,5,2,5,5,0,51,42,4,5,5,5,4,42,3,0,42,44,0,0,0,0,0,0,0,0,0,0,0,0,0,0,0,0,0,0,0,0,0,0,0,0,0,0,0,0,0,0,0,0,0,0,0,0,0,0,0,0,0,0,0],"split_type":[0,0,0,0,0,0,0,0,0,0,0,0,0,0,0,0,0,0,0,0,0,0,0,0,0,0,0,0,0,0,0,0,0,0,0,0,0,0,0,0,0,0,0,0,0,0,0,0,0,0,0,0,0,0,0,0,0,0,0,0,0,0,0,0,0,0,0,0,0,0,0,0,0,0,0,0,0,0,0,0,0,0,0,0,0,0,0,0,0,0,0,0,0],"sum_hessian":[9.3133414E4,2.171849E4,7.141492E4,1.4941125E4,6.777365E3,6.4809953E4,6.604968E3,7.0375244E3,7.9036E3,6.0190083E3,7.5835706E2,6.1091742E4,3.7182097E3,5.01011E3,1.594858E3,4.661708E3,2.3758167E3,4.0699778E3,3.8336223E3,5.830501E3,1.8850726E2,2.2694447E4,3.8397297E4,1.1264752E3,2.5917346E3,3.6941655E3,1.3159442E3,1.5013258E3,9.35323E1,4.5972693E2,4.201981E3,1.1666292E3,1.2091876E3,2.0283767E3,2.0416011E3,4.7102774E2,3.3625947E3,1.5450623E4,7.2438247E3,2.6702873E4,1.1694424E4,3.6787772E2,7.585975E2,2.5282576E3,6.3476936E1,1.4919485E3,2.202217E3,4.3039288E1,1.2729049E3,1.2070236E3,2.9430215E2,4.3520172E1,5.0012135E1,1.5027684E2,3.0945007E2,1.1998103E3,3.0021707E3,7.3888116E2,4.2774802E2,8.881962E2,3.2099133E2,3.5032538E2,1.6780513E3,7.5739526E2,1.2842058E3,1.377738E2,3.3325394E2,8.444356E2,2.518159E3,9.326541E3,6.124082E3,5.5842876E3,1.6595372E3,1.0309231E4,1.639364E4,8.950008E3,2.7444158E3,1.1493173E2,2.5294598E2,3.169038E2,4.416937E2,8.963713E2,1.6318862E3,3.2219357E1,3.1257584E1,1.4479474E3,4.400106E1,1.3652351E3,8.369819E2,1.2423687E3,3.0536255E1,7.874506E2,4.1957294E2],"tree_param":{"num_deleted":"0","num_feature":"73","num_nodes":"93","size_leaf_vector":"1"}},{"base_weights":[-3.4830926E-4,1.7282449E0,-5.3767955E-1,1.9031652E0,1.1421821E0,-6.801989E-1,8.389045E-1,1.5162965E0,2.1248884E0,1.4912401E0,4.1395044E-1,-8.0200106E-1,1.2793447E0,6.978542E-1,1.2782454E0,1.3496472E0,1.8451744E0,1.9661114E0,2.1919065E0,9.2983097E-1,1.6224093E0,-1.318355E-1,9.551836E-2,-4.2422712E-1,-1.0267155E0,8.695344E-1,1.4556799E0,5.751977E-1,1.0392468E0,1.360054E0,-5.392732E-2,1.2080784E0,1.4901772E0,8.6757265E-2,1.9071503E0,2.0811085E-2,1.9707674E0,2.208878E0,1.02626316E-1,1.198748E0,-9.435135E-1,1.7106845E0,6.9066197E-1,-4.426642E-1,7.1539956E-1,-6.263186E-1,4.047175E-3,-8.862575E-1,-1.3489168E0,3.6737674E-1,1.1096737E0,1.4961451E0,-1.7638204E-1,7.811135E-1,4.346039E-1,8.421723E-2,1.0146476E0,1.2887918E0,8.203E-2,7.437646E-2,-7.210212E-2,4.6954084E-2,6.5829545E-2,8.5092016E-2,7.077516E-2,1.01039015E-1,9.208371E-2,1.0600646E-1,9.555141E-2,1.1079108E-1,9.8584816E-2,5.2517544E-2,8.10255E-2,-4.9354345E-2,-2.8456146E-2,8.687606E-2,5.353708E-2,2.7608339E-2,4.587948E-2,-4.428056E-4,-5.744613E-2,-2.5423357E-2,6.0327854E-2,-4.2202733E-2,-1.4825545E-2,1.5501228E-2,-5.1977318E-2,-5.606671E-2,-3.6946904E-2,-7.1022116E-2,-5.5778533E-2,3.0160218E-2,1.277941E-2,8.384371E-2,3.4663096E-2,9.108399E-2,6.572631E-2,-4.469006E-2,2.7944652E-2,4.0380735E-2,-4.671925E-3,1.4098975E-2,3.4060832E-2,5.320623E-2,-4.880197E-2,7.0493184E-2,5.275339E-2],"categories":[],"categories_nodes":[],"categories_segments":[],"categories_sizes":[],"default_left":[0,0,0,0,0,0,0,0,0,0,0,0,0,0,0,0,0,0,0,0,0,0,0,0,0,0,0,0,0,0,0,0,0,0,0,0,0,0,0,0,0,0,0,0,0,0,0,0,0,0,0,0,0,0,0,0,0,0,0,0,0,0,0,0,0,0,0,0,0,0,0,0,0,0,0,0,0,0,0,0,0,0,0,0,0,0,0,0,0,0,0,0,0,0,0,0,0,0,0,0,0,0,0,0,0,0,0],"id":1,"left_children":[1,3,5,7,9,11,13,15,17,19,21,23,25,27,29,31,33,35,37,39,41,43,-1,45,47,49,51,53,55,57,59,61,63,-1,65,-1,67,69,-1,71,73,75,77,79,81,83,85,87,89,91,93,95,97,99,101,-1,103,105,-1,-1,-1,-1,-1,-1,-1,-1,-1,-1,-1,-1,-1,-1,-1,-1,-1,-1,-1,-1,-1,-1,-1,-1,-1,-1,-1,-1,-1,-1,-1,-1,-1,-1,-1,-1,-1,-1,-1,-1,-1,-1,-1,-1,-1,-1,-1,-1,-1],"loss_changes":[8.64274E4,2.257375E3,1.3927604E4,1.450582E3,1.2891528E3,1.5355168E4,4.107622E2,3.3434473E2,1.0583594E2,2.4939893E2,1.3465798E3,5.1402617E3,2.693208E2,2.0995532E2,1.7640405E2,7.810791E1,7.190918E0,2.1385742E1,8.421875E0,3.320949E2,2.2593115E2,3.190778E2,0E0,1.9554373E3,1.715875E3,1.3624652E2,1.7430469E2,1.0681506E2,1.7436035E1,2.5921387E1,2.0831873E2,5.7538086E1,2.7413574E1,0E0,1.9082031E0,0E0,2.0167969E1,1.9179688E0,0E0,3.2218018E1,7.897186E-2,3.9561523E1,6.5054703E0,2.7133704E2,1.9681883E2,1.101646E3,2.3139395E3,9.141836E2,1.8891406E2,9.392323E0,1.7897614E2,1.4660498E2,3.5501106E1,3.5113342E1,8.284448E1,0E0,1.2889038E2,3.1411865E1,0E0,0E0,0E0,0E0,0E0,0E0,0E0,0E0,0E0,0E0,0E0,0E0,0E0,0E0,0E0,0E0,0E0,0E0,0E0,0E0,0E0,0E0,0E0,0E0,0E0,0E0,0E0,0E0,0E0,0E0,0E0,0E0,0E0,0E0,0E0,0E0,0E0,0E0,0E0,0E0,0E0,0E0,0E0,0E0,0E0,0E0,0E0,0E0,0E0],"parents":[2147483647,0,0,1,1,2,2,3,3,4,4,5,5,6,6,7,7,8,8,9,9,10,10,11,11,12,12,13,13,14,14,15,15,16,16,17,17,18,18,19,19,20,20,21,21,23,23,24,24,25,25,26,26,27,27,28,28,29,29,30,30,31,31,32,32,34,34,36,36,37,37,39,39,40,40,41,41,42,42,43,43,44,44,45,45,46,46,47,47,48,48,49,49,50,50,51,51,52,52,53,53,54,54,56,56,57,57],"right_children":[2,4,6,8,10,12,14,16,18,20,22,24,26,28,30,32,34,36,38,40,42,44,-1,46,48,50,52,54,56,58,60,62,64,-1,66,-1,68,70,-1,72,74,76,78,80,82,84,86,88,90,92,94,96,98,100,102,-1,104,106,-1,-1,-1,-1,-1,-1,-1,-1,-1,-1,-1,-1,-1,-1,-1,-1,-1,-1,-1,-1,-1,-1,-1,-1,-1,-1,-1,-1,-1,-1,-1,-1,-1,-1,-1,-1,-1,-1,-1,-1,-1,-1,-1,-1,-1,-1,-1,-1,-1],"split_conditions":[-1.3161044E0,8.417644E-1,3.6194627E0,-1.1964939E0,8.02295E-1,4.9038677E0,1.3473849E0,6.674436E0,7.2852784E-1,-9.445005E-1,2.7910964E0,-6.4128146E-2,2.7910964E0,8.656764E-1,1.1063287E0,2.7910964E0,-4.318169E-1,-1.0769324E0,1.8924749E0,6.8265977E0,1.1814741E0,1.8924749E0,9.551836E-2,1.1063287E0,8.02295E-1,-7.143598E-1,1.3473849E0,-2.878848E-1,-3.712927E-1,3.1027296E0,-6.4128146E-2,6.8265977E0,-7.143598E-1,8.6757265E-2,-4.227987E-1,2.0811085E-2,-7.143598E-1,4.7639194E0,1.02626316E-1,2.7910964E0,2.9980695E0,2.1735277E0,4.5188472E-1,1.3473849E0,-4.9195626E-1,-1.422967E0,4.5600204E0,1.1063287E0,1.8924749E0,-1.2974821E0,7.434459E-1,-4.227987E-1,1.8924749E0,1.1063287E0,-3.9412044E-2,8.421723E-2,1.1063287E0,6.439483E0,8.203E-2,7.437646E-2,-7.210212E-2,4.6954084E-2,6.5829545E-2,8.5092016E-2,7.077516E-2,1.01039015E-1,9.208371E-2,1.0600646E-1,9.555141E-2,1.1079108E-1,9.8584816E-2,5.2517544E-2,8.10255E-2,-4.9354345E-2,-2.8456146E-2,8.687606E-2,5.353708E-2,2.7608339E-2,4.587948E-2,-4.428056E-4,-5.744613E-2,-2.5423357E-2,6.0327854E-2,-4.2202733E-2,-1.4825545E-2,1.5501228E-2,-5.1977318E-2,-5.606671E-2,-3.6946904E-2,-7.1022116E-2,-5.5778533E-2,3.0160218E-2,1.277941E-2,8.384371E-2,3.4663096E-2,9.108399E-2,6.572631E-2,-4.469006E-2,2.7944652E-2,4.0380735E-2,-4.671925E-3,1.4098975E-2,3.4060832E-2,5.320623E-2,-4.880197E-2,7.0493184E-2,5.275339E-2],"split_indices":[1,0,65,0,4,49,4,35,0,3,50,0,50,3,42,50,2,2,4,68,0,4,0,42,4,5,4,4,1,15,0,68,5,0,5,0,5,10,0,50,17,61,5,4,3,0,51,42,4,5,5,5,4,42,3,0,42,44,0,0,0,0,0,0,0,0,0,0,0,0,0,0,0,0,0,0,0,0,0,0,0,0,0,0,0,0,0,0,0,0,0,0,0,0,0,0,0,0,0,0,0,0,0,0,0,0,0],"split_type":[0,0,0,0,0,0,0,0,0,0,0,0,0,0,0,0,0,0,0,0,0,0,0,0,0,0,0,0,0,0,0,0,0,0,0,0,0,0,0,0,0,0,0,0,0,0,0,0,0,0,0,0,0,0,0,0,0,0,0,0,0,0,0,0,0,0,0,0,0,0,0,0,0,0,0,0,0,0,0,0,0,0,0,0,0,0,0,0,0,0,0,0,0,0,0,0,0,0,0,0,0,0,0,0,0,0,0],"sum_hessian":[9.304616E4,2.2063455E4,7.09827E4,1.6988336E4,5.07512E3,6.4324223E4,6.6584766E3,6.195092E3,1.0793244E4,3.4291958E3,1.6459246E3,6.0561074E4,3.7631492E3,5.0443833E3,1.6140934E3,4.118615E3,2.0764768E3,3.2219932E3,7.5712505E3,6.526728E2,2.776523E3,1.2073328E3,4.385918E2,2.2590225E4,3.797085E4,1.1358394E3,2.6273098E3,3.715228E3,1.3291552E3,1.5207383E3,9.335512E1,2.0616401E3,2.0569749E3,7.6966174E2,1.306815E3,1.0255734E1,3.2117375E3,6.722309E3,8.4894183E2,5.7141956E2,8.125322E1,2.5346106E3,2.419122E2,8.840651E2,3.232676E2,1.5347465E4,7.2427593E3,2.644878E4,1.1522071E4,3.6922525E2,7.666141E2,2.5639666E3,6.3343147E1,1.5034418E3,2.2117861E3,4.371638E1,1.2854388E3,1.2219034E3,2.9883478E2,4.4132328E1,4.9222786E1,5.984195E2,1.4632207E3,5.247252E2,1.5322498E3,4.553422E2,8.514728E2,8.973938E2,2.3143438E3,6.514487E3,2.0782216E2,4.2803378E2,1.4338582E2,6.9611374E1,1.1641842E1,2.4291555E3,1.0545517E2,1.5476523E2,8.714698E1,5.490107E2,3.3505447E2,9.250055E1,2.3076707E2,9.242336E3,6.105129E3,5.6018276E3,1.6409315E3,1.0184132E4,1.6264648E4,8.810778E3,2.711293E3,1.156227E2,2.5360254E2,3.2188116E2,4.447329E2,9.1152856E2,1.6524381E3,3.1911453E1,3.1431694E1,1.4594832E3,4.395866E1,1.3691407E3,8.4264545E2,1.2552223E3,3.0216507E1,7.9802515E2,4.2387833E2],"tree_param":{"num_deleted":"0","num_feature":"73","num_nodes":"107","size_leaf_vector":"1"}},{"base_weights":[-6.111642E-4,1.6242764E0,-5.1458555E-1,1.7868875E0,1.0770894E0,-6.518477E-1,7.917717E-1,1.4255333E0,1.9935907E0,1.4025965E0,3.924177E-1,-7.693628E-1,1.2044525E0,6.5915453E-1,1.2035334E0,1.2696449E0,1.7326144E0,1.8451543E0,2.0562258E0,8.7745523E-1,1.5248028E0,-1.2569845E-1,8.9693494E-2,-4.051201E-1,-9.8759246E-1,8.208296E-1,1.3689504E0,5.437411E-1,9.79416E-1,1.2795527E0,-5.1865786E-2,1.1372272E0,1.400921E0,8.148865E-2,1.790528E0,1.988788E-2,1.8494569E0,1.0408447E-1,9.8574296E-2,1.1291597E0,-9.059561E-1,1.606845E0,6.534485E-1,-4.228364E-1,6.757642E-1,-5.993023E-1,3.7488972E-3,-8.5078996E-1,-1.3034122E0,3.4808517E-1,1.0458212E0,1.4065869E0,-1.6858098E-1,9.761485E-2,5.2464676E-1,9.2781395E-1,1.2431041E0,1.2128315E0,7.709283E-2,7.010286E-2,-6.9857895E-2,4.42879E-2,6.1920166E-2,8.2883105E-2,6.7260385E-2,9.481402E-2,8.647733E-2,9.9451356E-2,8.968089E-2,4.9486265E-2,7.6237954E-2,-4.738279E-2,-2.7363753E-2,8.216831E-2,5.929164E-2,2.6137963E-2,4.3351896E-2,-4.2077978E-4,-5.5299908E-2,-1.4945976E-2,6.1452072E-2,-4.0488258E-2,-1.4128821E-2,1.4683433E-2,-4.9999963E-2,-3.9555974E-2,-7.041449E-2,-6.869813E-2,-5.371281E-2,1.3964969E-2,3.67476E-2,7.878506E-2,3.27406E-2,8.552824E-2,6.1833985E-2,-4.3008823E-2,2.6505917E-2,2.8357858E-2,-6.2346846E-2,8.032454E-2,4.5113333E-2,6.874143E-2,2.3406341E-3,6.629434E-2,4.9709346E-2],"categories":[],"categories_nodes":[],"categories_segments":[],"categories_sizes":[],"default_left":[0,0,0,0,0,0,0,0,0,0,0,0,0,0,0,0,0,0,0,0,0,0,0,0,0,0,0,0,0,0,0,0,0,0,0,0,0,0,0,0,0,0,0,0,0,0,0,0,0,0,0,0,0,0,0,0,0,0,0,0,0,0,0,0,0,0,0,0,0,0,0,0,0,0,0,0,0,0,0,0,0,0,0,0,0,0,0,0,0,0,0,0,0,0,0,0,0,0,0,0,0,0,0,0,0],"id":2,"left_children":[1,3,5,7,9,11,13,15,17,19,21,23,25,27,29,31,33,35,37,39,41,43,-1,45,47,49,51,53,55,57,59,61,63,-1,65,-1,67,-1,-1,69,71,73,75,77,79,81,83,85,87,89,91,93,95,-1,97,99,101,103,-1,-1,-1,-1,-1,-1,-1,-1,-1,-1,-1,-1,-1,-1,-1,-1,-1,-1,-1,-1,-1,-1,-1,-1,-1,-1,-1,-1,-1,-1,-1,-1,-1,-1,-1,-1,-1,-1,-1,-1,-1,-1,-1,-1,-1,-1,-1],"loss_changes":[7.7495836E4,1.9799414E3,1.2641629E4,1.2777031E3,1.1383652E3,1.3917791E4,3.642881E2,2.9501855E2,9.362109E1,2.1945068E2,1.1991567E3,4.7680625E3,2.3725586E2,1.8637134E2,1.5585864E2,6.88833E1,6.3442383E0,1.8624023E1,7.9316406E0,2.9788217E2,1.9841162E2,2.8796625E2,0E0,1.7850056E3,1.6184609E3,1.20943665E2,1.5426611E2,9.816943E1,1.5732544E1,2.2893066E1,1.8961731E2,5.057251E1,2.4996094E1,0E0,1.6171875E0,0E0,1.783496E1,0E0,0E0,2.863623E1,4.815674E-2,3.5256836E1,5.7965164E0,2.4952223E2,1.7722937E2,1.0155054E3,2.1076765E3,8.6857227E2,1.800586E2,9.398823E0,1.5824298E2,1.2936426E2,3.2437622E1,0E0,2.7911163E2,1.644806E1,3.3355103E1,2.76698E1,0E0,0E0,0E0,0E0,0E0,0E0,0E0,0E0,0E0,0E0,0E0,0E0,0E0,0E0,0E0,0E0,0E0,0E0,0E0,0E0,0E0,0E0,0E0,0E0,0E0,0E0,0E0,0E0,0E0,0E0,0E0,0E0,0E0,0E0,0E0,0E0,0E0,0E0,0E0,0E0,0E0,0E0,0E0,0E0,0E0,0E0,0E0],"parents":[2147483647,0,0,1,1,2,2,3,3,4,4,5,5,6,6,7,7,8,8,9,9,10,10,11,11,12,12,13,13,14,14,15,15,16,16,17,17,18,18,19,19,20,20,21,21,23,23,24,24,25,25,26,26,27,27,28,28,29,29,30,30,31,31,32,32,34,34,36,36,39,39,40,40,41,41,42,42,43,43,44,44,45,45,46,46,47,47,48,48,49,49,50,50,51,51,52,52,54,54,55,55,56,56,57,57],"right_children":[2,4,6,8,10,12,14,16,18,20,22,24,26,28,30,32,34,36,38,40,42,44,-1,46,48,50,52,54,56,58,60,62,64,-1,66,-1,68,-1,-1,70,72,74,76,78,80,82,84,86,88,90,92,94,96,-1,98,100,102,104,-1,-1,-1,-1,-1,-1,-1,-1,-1,-1,-1,-1,-1,-1,-1,-1,-1,-1,-1,-1,-1,-1,-1,-1,-1,-1,-1,-1,-1,-1,-1,-1,-1,-1,-1,-1,-1,-1,-1,-1,-1,-1,-1,-1,-1,-1,-1],"split_conditions":[-1.3161044E0,8.417644E-1,3.6194627E0,-1.1964939E0,8.02295E-1,4.9038677E0,1.3473849E0,6.674436E0,7.2852784E-1,-9.445005E-1,2.7910964E0,-6.4128146E-2,2.7910964E0,8.656764E-1,1.1063287E0,2.7910964E0,-4.318169E-1,-1.0769324E0,1.3473849E0,6.8265977E0,1.1814741E0,1.8924749E0,8.9693494E-2,1.1063287E0,8.02295E-1,-7.143598E-1,1.3473849E0,-6.4128146E-2,3.1027296E0,3.1027296E0,-6.4128146E-2,6.8265977E0,-1.005921E0,8.148865E-2,-4.227987E-1,1.988788E-2,-7.143598E-1,1.0408447E-1,9.8574296E-2,2.7910964E0,2.9980695E0,6.8265977E0,4.5188472E-1,1.3473849E0,-2.6568416E-1,-1.422967E0,4.5600204E0,5.080652E0,1.8924749E0,3.175779E0,7.434459E-1,-4.227987E-1,1.8924749E0,9.761485E-2,1.1063287E0,-3.712927E-1,1.1063287E0,6.439483E0,7.709283E-2,7.010286E-2,-6.9857895E-2,4.42879E-2,6.1920166E-2,8.2883105E-2,6.7260385E-2,9.481402E-2,8.647733E-2,9.9451356E-2,8.968089E-2,4.9486265E-2,7.6237954E-2,-4.738279E-2,-2.7363753E-2,8.216831E-2,5.929164E-2,2.6137963E-2,4.3351896E-2,-4.2077978E-4,-5.5299908E-2,-1.4945976E-2,6.1452072E-2,-4.0488258E-2,-1.4128821E-2,1.4683433E-2,-4.9999963E-2,-3.9555974E-2,-7.041449E-2,-6.869813E-2,-5.371281E-2,1.3964969E-2,3.67476E-2,7.878506E-2,3.27406E-2,8.552824E-2,6.1833985E-2,-4.3008823E-2,2.6505917E-2,2.8357858E-2,-6.2346846E-2,8.032454E-2,4.5113333E-2,6.874143E-2,2.3406341E-3,6.629434E-2,4.9709346E-2],"split_indices":[1,0,65,0,4,49,4,35,0,3,50,0,50,3,42,50,2,2,4,68,0,4,0,42,4,5,4,0,15,15,0,68,5,0,5,0,5,0,0,50,17,68,5,4,3,0,51,47,4,27,5,5,4,0,42,1,42,44,0,0,0,0,0,0,0,0,0,0,0,0,0,0,0,0,0,0,0,0,0,0,0,0,0,0,0,0,0,0,0,0,0,0,0,0,0,0,0,0,0,0,0,0,0,0,0],"split_type":[0,0,0,0,0,0,0,0,0,0,0,0,0,0,0,0,0,0,0,0,0,0,0,0,0,0,0,0,0,0,0,0,0,0,0,0,0,0,0,0,0,0,0,0,0,0,0,0,0,0,0,0,0,0,0,0,0,0,0,0,0,0,0,0,0,0,0,0,0,0,0,0,0,0,0,0,0,0,0,0,0,0,0,0,0,0,0,0,0,0,0,0,0,0,0,0,0,0,0,0,0,0,0,0,0],"sum_hessian":[9.278877E4,2.2296312E4,7.049246E4,1.7184707E4,5.1116055E3,6.3790875E4,6.7015874E3,6.259046E3,1.092566E4,3.462987E3,1.6486185E3,5.999411E4,3.7967656E3,5.0731187E3,1.6284684E3,4.1585635E3,2.1004827E3,3.2607175E3,7.6649424E3,6.569861E2,2.806001E3,1.2049122E3,4.437062E2,2.2479768E4,3.7514344E4,1.1432344E3,2.6535312E3,3.733409E3,1.3397098E3,1.5355275E3,9.2941025E1,2.0802808E3,2.0782827E3,7.7833887E2,1.3221438E3,1.028723E1,3.2504304E3,5.8567285E3,1.808214E3,5.7642175E2,8.0564384E1,2.5628896E3,2.4311125E2,8.798006E2,3.251117E2,1.5240828E4,7.238939E3,2.6181223E4,1.1333122E4,3.7043283E2,7.7280164E2,2.5903584E3,6.31728E1,4.7154907E1,3.686254E3,1.128321E3,2.1138882E2,1.2334166E3,3.0211084E2,4.4590816E1,4.8350204E1,6.027263E2,1.4775543E3,3.600016E2,1.7182811E3,4.609478E2,8.61196E2,9.085298E2,2.3419004E3,4.315666E2,1.4485512E2,6.898174E1,1.1582637E1,2.352753E3,2.1013667E2,1.5539354E2,8.771771E1,5.489603E2,3.3084024E2,1.17990974E2,2.0712071E2,9.154365E3,6.086463E3,5.617819E3,1.6211201E3,2.3654447E4,2.5267742E3,8.657351E3,2.6757712E3,3.1765536E2,5.277744E1,3.2544977E2,4.4735184E2,9.220368E2,1.6683217E3,3.158743E1,3.1585371E1,3.6012554E3,8.49985E1,3.6300438E1,1.0920206E3,1.900772E2,2.1311626E1,8.0604565E2,4.273709E2],"tree_param":{"num_deleted":"0","num_feature":"73","num_nodes":"105","size_leaf_vector":"1"}},{"base_weights":[-8.0339477E-4,1.5335433E0,-4.928301E-1,1.6862041E0,1.0186899E0,-6.250968E-1,7.4831975E-1,1.3447397E0,1.8816565E0,1.3237932E0,3.7272304E-1,-7.3847294E-1,1.137039E0,6.2319565E-1,1.1362717E0,1.197653E0,1.6344985E0,1.7407215E0,1.9411746E0,9.3110764E-1,1.470369E0,-1.19895145E-1,1.6927885E0,-3.8697058E-1,-9.5069855E-1,7.760939E-1,1.2915274E0,5.143054E-1,9.2474294E-1,1.2071388E0,-5.0005607E-2,1.0729454E0,1.321243E0,7.685935E-2,1.6893346E0,1.693223E0,1.9048203E0,1.9565017E0,9.077444E-2,1.1321291E0,-7.69354E-1,1.5502446E0,5.935945E-1,-4.0404344E-1,6.393887E-1,9.1249295E-2,1.5835713E0,-5.735778E-1,3.4681475E-3,-8.171252E-1,-1.2613491E0,3.2996008E-1,9.8778766E-1,1.3267305E0,-1.61217E-1,7.069573E-1,3.825049E-1,7.569732E-2,9.0228033E-1,1.131086E0,7.1598016E-2,6.6273965E-2,-6.7801766E-2,4.1832816E-2,5.8393683E-2,7.8180045E-2,6.3432895E-2,8.9460365E-2,8.158835E-2,9.214394E-2,7.801428E-2,8.176517E-2,9.781379E-2,9.8149486E-2,8.68172E-2,5.047926E-2,7.4755155E-2,-4.880437E-2,-3.2117274E-2,7.8832746E-2,4.5201268E-2,2.5838329E-2,5.345946E-2,2.8959566E-3,-4.9155243E-2,-2.362884E-2,5.375607E-2,9.308743E-2,7.5034134E-2,-3.8859464E-2,-1.3464195E-2,1.3912441E-2,-4.8134167E-2,-5.2287E-2,-3.3749145E-2,-6.656336E-2,-5.1770873E-2,1.3238228E-2,3.4763463E-2,7.4321136E-2,3.0951986E-2,8.0676906E-2,5.832177E-2,-4.1412003E-2,2.5155468E-2,3.6693033E-2,-1.987462E-3,1.2445786E-2,3.2447964E-2,4.738647E-2,-4.7969434E-2,5.290061E-2,7.133442E-2],"categories":[],"categories_nodes":[],"categories_segments":[],"categories_sizes":[],"default_left":[0,0,0,0,0,0,0,0,0,0,0,0,0,0,0,0,0,0,0,0,0,0,0,0,0,0,0,0,0,0,0,0,0,0,0,0,0,0,0,0,0,0,0,0,0,0,0,0,0,0,0,0,0,0,0,0,0,0,0,0,0,0,0,0,0,0,0,0,0,0,0,0,0,0,0,0,0,0,0,0,0,0,0,0,0,0,0,0,0,0,0,0,0,0,0,0,0,0,0,0,0,0,0,0,0,0,0,0,0,0,0,0,0],"id":3,"left_children":[1,3,5,7,9,11,13,15,17,19,21,23,25,27,29,31,33,35,37,39,41,43,45,47,49,51,53,55,57,59,61,63,65,-1,67,69,71,73,-1,75,77,79,81,83,85,-1,87,89,91,93,95,97,99,101,103,105,107,-1,109,111,-1,-1,-1,-1,-1,-1,-1,-1,-1,-1,-1,-1,-1,-1,-1,-1,-1,-1,-1,-1,-1,-1,-1,-1,-1,-1,-1,-1,-1,-1,-1,-1,-1,-1,-1,-1,-1,-1,-1,-1,-1,-1,-1,-1,-1,-1,-1,-1,-1,-1,-1,-1,-1],"loss_changes":[6.975083E4,1.7595625E3,1.1485549E4,1.1492266E3,1.01105176E3,1.2632512E4,3.2549463E2,2.6451367E2,8.512109E1,1.9774951E2,1.0738462E3,4.4303867E3,2.1094336E2,1.6635266E2,1.381604E2,6.15E1,5.7807617E0,1.8794922E1,7.3789062E0,3.2772595E2,1.7553809E2,2.6020117E2,3.577881E-1,1.6296548E3,1.534582E3,1.07914734E2,1.3727734E2,9.460431E1,1.4896118E1,2.2977783E1,1.7304602E2,4.4870605E1,2.2452393E1,0E0,1.4838867E0,4.496289E1,3.2407227E0,2.5976562E0,0E0,3.4698853E1,1.2609367E0,3.6543457E1,6.5950394E0,2.3487881E2,1.6023369E2,0E0,9.9853516E-2,9.371279E2,1.9211537E3,8.402754E2,1.7286719E2,8.432114E0,1.4125763E2,1.1598096E2,2.9656187E1,3.0687927E1,7.9041626E1,0E0,1.1229541E2,2.1936157E1,0E0,0E0,0E0,0E0,0E0,0E0,0E0,0E0,0E0,0E0,0E0,0E0,0E0,0E0,0E0,0E0,0E0,0E0,0E0,0E0,0E0,0E0,0E0,0E0,0E0,0E0,0E0,0E0,0E0,0E0,0E0,0E0,0E0,0E0,0E0,0E0,0E0,0E0,0E0,0E0,0E0,0E0,0E0,0E0,0E0,0E0,0E0,0E0,0E0,0E0,0E0,0E0,0E0],"parents":[2147483647,0,0,1,1,2,2,3,3,4,4,5,5,6,6,7,7,8,8,9,9,10,10,11,11,12,12,13,13,14,14,15,15,16,16,17,17,18,18,19,19,20,20,21,21,22,22,23,23,24,24,25,25,26,26,27,27,28,28,29,29,30,30,31,31,32,32,34,34,35,35,36,36,37,37,39,39,40,40,41,41,42,42,43,43,44,44,46,46,47,47,48,48,49,49,50,50,51,51,52,52,53,53,54,54,55,55,56,56,58,58,59,59],"right_children":[2,4,6,8,10,12,14,16,18,20,22,24,26,28,30,32,34,36,38,40,42,44,46,48,50,52,54,56,58,60,62,64,66,-1,68,70,72,74,-1,76,78,80,82,84,86,-1,88,90,92,94,96,98,100,102,104,106,108,-1,110,112,-1,-1,-1,-1,-1,-1,-1,-1,-1,-1,-1,-1,-1,-1,-1,-1,-1,-1,-1,-1,-1,-1,-1,-1,-1,-1,-1,-1,-1,-1,-1,-1,-1,-1,-1,-1,-1,-1,-1,-1,-1,-1,-1,-1,-1,-1,-1,-1,-1,-1,-1,-1,-1],"split_conditions":[-1.3161044E0,8.417644E-1,3.6194627E0,-1.1964939E0,8.02295E-1,4.9038677E0,1.3473849E0,6.674436E0,7.2852784E-1,-7.182284E-1,2.7910964E0,-6.4128146E-2,2.7910964E0,8.656764E-1,1.1063287E0,2.7910964E0,-4.318169E-1,1.035007E0,1.8924749E0,6.8265977E0,1.1814741E0,1.8924749E0,1.3473849E0,1.1063287E0,8.02295E-1,-7.143598E-1,1.3473849E0,-2.878848E-1,-3.712927E-1,1.035007E0,-6.4128146E-2,6.8265977E0,-1.005921E0,7.685935E-2,-4.227987E-1,-4.227987E-1,1.6234499E-1,4.7639194E0,9.077444E-2,2.7910964E0,-7.143598E-1,2.1735277E0,1.0919485E0,1.8686007E-1,-4.9195626E-1,9.1249295E-2,-7.143598E-1,-1.422967E0,4.5600204E0,1.1063287E0,1.8924749E0,3.175779E0,7.434459E-1,-4.227987E-1,1.8924749E0,1.5035297E0,6.439483E0,7.569732E-2,1.1063287E0,3.1027296E0,7.1598016E-2,6.6273965E-2,-6.7801766E-2,4.1832816E-2,5.8393683E-2,7.8180045E-2,6.3432895E-2,8.9460365E-2,8.158835E-2,9.214394E-2,7.801428E-2,8.176517E-2,9.781379E-2,9.8149486E-2,8.68172E-2,5.047926E-2,7.4755155E-2,-4.880437E-2,-3.2117274E-2,7.8832746E-2,4.5201268E-2,2.5838329E-2,5.345946E-2,2.8959566E-3,-4.9155243E-2,-2.362884E-2,5.375607E-2,9.308743E-2,7.5034134E-2,-3.8859464E-2,-1.3464195E-2,1.3912441E-2,-4.8134167E-2,-5.2287E-2,-3.3749145E-2,-6.656336E-2,-5.1770873E-2,1.3238228E-2,3.4763463E-2,7.4321136E-2,3.0951986E-2,8.0676906E-2,5.832177E-2,-4.1412003E-2,2.5155468E-2,3.6693033E-2,-1.987462E-3,1.2445786E-2,3.2447964E-2,4.738647E-2,-4.7969434E-2,5.290061E-2,7.133442E-2],"split_indices":[1,0,65,0,4,49,4,35,0,3,50,0,50,3,42,50,2,5,4,68,0,4,4,42,4,5,4,4,1,5,0,68,5,0,5,5,0,10,0,50,5,61,3,3,3,0,5,0,51,42,4,27,5,5,4,2,44,0,42,15,0,0,0,0,0,0,0,0,0,0,0,0,0,0,0,0,0,0,0,0,0,0,0,0,0,0,0,0,0,0,0,0,0,0,0,0,0,0,0,0,0,0,0,0,0,0,0,0,0,0,0,0,0],"split_type":[0,0,0,0,0,0,0,0,0,0,0,0,0,0,0,0,0,0,0,0,0,0,0,0,0,0,0,0,0,0,0,0,0,0,0,0,0,0,0,0,0,0,0,0,0,0,0,0,0,0,0,0,0,0,0,0,0,0,0,0,0,0,0,0,0,0,0,0,0,0,0,0,0,0,0,0,0,0,0,0,0,0,0,0,0,0,0,0,0,0,0,0,0,0,0,0,0,0,0,0,0,0,0,0,0,0,0,0,0,0,0,0,0],"sum_hessian":[9.238875E4,2.2431969E4,6.995678E4,1.729811E4,5.133859E3,6.322057E4,6.7362075E3,6.3029097E3,1.09952E4,3.4853862E3,1.6484725E3,5.939998E4,3.820589E3,5.097582E3,1.6386256E3,4.187748E3,2.1151616E3,3.2831296E3,7.7120713E3,9.515397E2,2.5338464E3,1.2017496E3,4.4672287E2,2.23645E4,3.703548E4,1.1489326E3,2.6716565E3,3.749398E3,1.3481841E3,1.5463003E3,9.232527E1,2.094488E3,2.09326E3,7.839193E2,1.3312423E3,2.5641748E3,7.1895483E2,6.847152E3,8.649193E2,8.51595E2,9.99447E1,2.32077E3,2.1307642E2,8.7526495E2,3.2648474E2,1.8747125E2,2.5925162E2,1.5131726E4,7.2327754E3,2.590461E4,1.113087E4,3.7153375E2,7.773988E2,2.608685E3,6.297161E1,1.5192434E3,2.2301545E3,4.4470078E1,1.3037141E3,1.1647836E3,3.8151678E2,4.4915157E1,4.741012E1,6.062166E2,1.4882714E3,3.626208E2,1.7306393E3,4.641323E2,8.6711E2,1.1937833E3,1.3703914E3,1.26078445E2,5.928764E2,6.6353228E3,2.1182893E2,6.4251385E2,2.0908109E2,3.264698E1,6.729772E1,2.2267317E3,9.40385E1,1.8721669E2,2.585972E1,4.8776437E2,3.8750058E2,9.180497E1,2.3467976E2,4.9385128E1,2.0986647E2,9.063591E3,6.068135E3,5.632405E3,1.6003704E3,9.926269E3,1.5978341E4,8.492505E3,2.638365E3,3.184282E2,5.310557E1,3.2780084E2,4.4959796E2,9.285407E2,1.6801443E3,3.1250904E1,3.1720707E1,1.466572E3,5.2671402E1,1.4882507E3,7.4190375E2,1.2736558E3,3.0058315E1,9.415307E2,2.2325284E2],"tree_param":{"num_deleted":"0","num_feature":"73","num_nodes":"113","size_leaf_vector":"1"}},{"base_weights":[-9.335697E-4,1.4534707E0,-4.7229078E-1,1.2729465E0,1.8486314E0,-5.9979415E-1,7.080988E-1,9.908612E-1,1.5210736E0,1.8634139E0,8.6339675E-2,-7.0917547E-1,1.0758904E0,5.896952E-1,1.0751766E0,1.2057781E0,5.5932623E-1,1.4000982E0,1.6485329E0,9.346785E-2,8.3106376E-2,-3.6970645E-1,-9.158224E-1,7.348035E-1,1.2218051E0,4.8678303E-1,8.744074E-1,1.1414094E0,-4.8318755E-2,1.2410831E0,6.08144E-1,1.2269243E0,-1.1436449E-1,1.2494894E0,1.5479897E0,1.3553721E0,1.6887524E0,-1.9842656E-1,-7.701657E-1,-7.8514314E-1,-1.2222551E0,3.128805E-1,9.3470883E-1,1.2548895E0,-1.5425089E-1,9.039294E-2,4.6872333E-1,8.2525915E-1,1.1260638E0,1.0697936E0,1.3528601E0,1.256316E0,-6.5908164E-2,6.718124E-2,4.8558597E-2,5.966879E-2,2.7914852E-2,5.161823E-2,7.772338E-2,-1.929647E-2,3.0286495E-2,7.155822E-2,5.9272498E-2,7.274837E-2,8.002415E-2,8.26984E-2,6.1138343E-2,8.196779E-2,9.366757E-2,-2.5306707E-2,6.780479E-3,-4.2435177E-2,1.91193E-2,-3.6368683E-2,-6.661895E-2,-6.4591415E-2,-4.9937762E-2,2.6747493E-2,1.0382901E-2,8.072679E-2,3.446333E-2,7.639266E-2,5.5129625E-2,-3.9891537E-2,2.3885846E-2,2.542582E-2,-6.0786903E-2,7.211078E-2,4.0104106E-2,6.2137555E-2,2.3275742E-3,5.002402E-2,6.7519896E-2,6.452348E-2,8.090881E-2,4.5621183E-2,7.189202E-2],"categories":[],"categories_nodes":[],"categories_segments":[],"categories_sizes":[],"default_left":[0,0,0,0,0,0,0,0,0,0,0,0,0,0,0,0,0,0,0,0,0,0,0,0,0,0,0,0,0,0,0,0,0,0,0,0,0,0,0,0,0,0,0,0,0,0,0,0,0,0,0,0,0,0,0,0,0,0,0,0,0,0,0,0,0,0,0,0,0,0,0,0,0,0,0,0,0,0,0,0,0,0,0,0,0,0,0,0,0,0,0,0,0,0,0,0,0],"id":4,"left_children":[1,3,5,7,9,11,13,15,17,19,-1,21,23,25,27,29,31,33,35,-1,-1,37,39,41,43,45,47,49,51,53,55,57,59,61,63,65,67,69,71,73,75,77,79,81,83,-1,85,87,89,91,93,95,-1,-1,-1,-1,-1,-1,-1,-1,-1,-1,-1,-1,-1,-1,-1,-1,-1,-1,-1,-1,-1,-1,-1,-1,-1,-1,-1,-1,-1,-1,-1,-1,-1,-1,-1,-1,-1,-1,-1,-1,-1,-1,-1,-1,-1],"loss_changes":[6.2981703E4,1.5990977E3,1.0443466E4,1.0775605E3,5.8984375E0,1.1479307E4,2.92594E2,6.6923535E2,1.2169531E2,9.1796875E-1,0E0,4.1230195E3,1.8902051E2,1.4902148E2,1.2279675E2,1.001333E2,1.0835513E3,8.999414E1,4.212793E1,0E0,0E0,1.5255786E3,1.4611016E3,9.671979E1,1.2272485E2,8.790912E1,1.4723877E1,2.0421997E1,1.5828271E2,1.2322168E2,6.4642944E0,7.363342E1,2.3519682E2,2.0833008E1,5.408203E0,1.5125427E1,2.5398438E1,1.6021521E3,6.039155E2,8.078496E2,1.6699414E2,8.454861E0,1.281297E2,1.0537012E2,2.7127333E1,0E0,2.5033008E2,1.380127E1,2.6940613E1,1.9858398E1,1.9171143E0,8.276367E-2,0E0,0E0,0E0,0E0,0E0,0E0,0E0,0E0,0E0,0E0,0E0,0E0,0E0,0E0,0E0,0E0,0E0,0E0,0E0,0E0,0E0,0E0,0E0,0E0,0E0,0E0,0E0,0E0,0E0,0E0,0E0,0E0,0E0,0E0,0E0,0E0,0E0,0E0,0E0,0E0,0E0,0E0,0E0,0E0,0E0],"parents":[2147483647,0,0,1,1,2,2,3,3,4,4,5,5,6,6,7,7,8,8,9,9,11,11,12,12,13,13,14,14,15,15,16,16,17,17,18,18,21,21,22,22,23,23,24,24,25,25,26,26,27,27,28,28,29,29,30,30,31,31,32,32,33,33,34,34,35,35,36,36,37,37,38,38,39,39,40,40,41,41,42,42,43,43,44,44,46,46,47,47,48,48,49,49,50,50,51,51],"right_children":[2,4,6,8,10,12,14,16,18,20,-1,22,24,26,28,30,32,34,36,-1,-1,38,40,42,44,46,48,50,52,54,56,58,60,62,64,66,68,70,72,74,76,78,80,82,84,-1,86,88,90,92,94,96,-1,-1,-1,-1,-1,-1,-1,-1,-1,-1,-1,-1,-1,-1,-1,-1,-1,-1,-1,-1,-1,-1,-1,-1,-1,-1,-1,-1,-1,-1,-1,-1,-1,-1,-1,-1,-1,-1,-1,-1,-1,-1,-1,-1,-1],"split_conditions":[-1.3161044E0,3.5686145E0,3.6194627E0,2.7910964E0,1.8924749E0,4.9038677E0,1.3473849E0,8.02295E-1,-1.1964939E0,4.7639194E0,8.6339675E-2,-6.4128146E-2,2.7910964E0,8.656764E-1,1.1063287E0,1.1814741E0,8.417644E-1,6.674436E0,8.584142E-1,9.346785E-2,8.3106376E-2,8.02295E-1,8.02295E-1,-7.143598E-1,1.3473849E0,-6.4128146E-2,3.1027296E0,1.035007E0,-6.4128146E-2,6.8265977E0,-1.2974821E0,-1.1964939E0,1.8924749E0,-7.143598E-1,-4.318169E-1,-7.143598E-1,1.035007E0,-1.1964939E0,2.1735277E0,5.080652E0,1.8924749E0,-1.2974821E0,1.6032359E-1,-4.227987E-1,1.8924749E0,9.039294E-2,1.1063287E0,-3.712927E-1,1.1063287E0,3.1027296E0,1.3182206E0,1.8924749E0,-6.5908164E-2,6.718124E-2,4.8558597E-2,5.966879E-2,2.7914852E-2,5.161823E-2,7.772338E-2,-1.929647E-2,3.0286495E-2,7.155822E-2,5.9272498E-2,7.274837E-2,8.002415E-2,8.26984E-2,6.1138343E-2,8.196779E-2,9.366757E-2,-2.5306707E-2,6.780479E-3,-4.2435177E-2,1.91193E-2,-3.6368683E-2,-6.661895E-2,-6.4591415E-2,-4.9937762E-2,2.6747493E-2,1.0382901E-2,8.072679E-2,3.446333E-2,7.639266E-2,5.5129625E-2,-3.9891537E-2,2.3885846E-2,2.542582E-2,-6.0786903E-2,7.211078E-2,4.0104106E-2,6.2137555E-2,2.3275742E-3,5.002402E-2,6.7519896E-2,6.452348E-2,8.090881E-2,4.5621183E-2,7.189202E-2],"split_indices":[1,39,65,50,4,49,4,4,0,10,0,0,50,3,42,0,0,35,2,0,0,4,4,5,4,0,15,5,0,68,5,0,4,5,2,5,5,0,61,47,4,5,5,5,4,0,42,1,42,15,3,4,0,0,0,0,0,0,0,0,0,0,0,0,0,0,0,0,0,0,0,0,0,0,0,0,0,0,0,0,0,0,0,0,0,0,0,0,0,0,0,0,0,0,0,0,0],"split_type":[0,0,0,0,0,0,0,0,0,0,0,0,0,0,0,0,0,0,0,0,0,0,0,0,0,0,0,0,0,0,0,0,0,0,0,0,0,0,0,0,0,0,0,0,0,0,0,0,0,0,0,0,0,0,0,0,0,0,0,0,0,0,0,0,0,0,0,0,0,0,0,0,0,0,0,0,0,0,0,0,0,0,0,0,0,0,0,0,0,0,0,0,0,0,0,0,0],"sum_hessian":[9.186728E4,2.2484736E4,6.938254E4,1.54399E4,7.0448354E3,6.2619566E4,6.762974E3,7.2303794E3,8.209521E3,6.256343E3,7.8849243E2,5.8783645E4,3.835924E3,5.1177056E3,1.6452686E3,4.8240454E3,2.406334E3,4.2245913E3,3.9849302E3,6.0603433E3,1.9599977E2,2.2245664E4,3.653798E4,1.153136E3,2.682788E3,3.7632212E3,1.3544844E3,1.5537295E3,9.153899E1,4.5527705E3,2.7127472E2,1.2078818E3,1.1984521E3,2.1027651E3,2.121826E3,4.8942038E2,3.4955098E3,1.5583644E4,6.66202E3,2.5619787E4,1.0918193E4,3.725202E2,7.806158E2,2.6200435E3,6.2744637E1,4.80034E1,3.7152178E3,1.1406688E3,2.1381549E2,1.1700419E3,3.8368762E2,4.5122658E1,4.6416332E1,3.293295E3,1.2594757E3,1.753351E1,2.537412E2,7.6317E2,4.4471182E2,8.7103204E2,3.2742014E2,5.365001E2,1.566265E3,7.868333E2,1.3349927E3,1.4322086E2,3.4619952E2,2.7736223E3,7.2188763E2,8.111113E3,7.472531E3,6.237589E3,4.244314E2,2.3177838E4,2.4419485E3,8.318671E3,2.599522E3,1.16831635E2,2.5568855E2,2.0400323E2,5.7661255E2,9.316022E2,1.6884413E3,3.090505E1,3.1839584E1,3.6308987E3,8.4319275E1,3.6709896E1,1.103959E3,1.9260162E2,2.121387E1,9.458831E2,2.241588E2,3.2043927E2,6.3248356E1,1.9943716E1,2.517894E1],"tree_param":{"num_deleted":"0","num_feature":"73","num_nodes":"97","size_leaf_vector":"1"}},{"base_weights":[-1.01941E-3,1.3817943E0,-4.527169E-1,1.2085228E0,1.7627164E0,-5.756284E-1,6.7080826E-1,9.4009835E-1,1.4449096E0,1.777126E0,8.221137E-2,-6.811116E-1,1.0199902E0,5.584418E-1,1.0195582E0,1.1430253E0,5.316115E-1,1.3287297E0,1.5675577E0,8.91445E-2,7.912707E-2,-3.5300496E-1,-8.826977E-1,6.9640434E-1,1.15853E0,4.0281633E-1,7.276439E-1,1.0815369E0,-4.554685E-2,7.175664E-1,1.188852E0,1.163793E0,-1.0892996E-1,1.1843613E0,1.470842E0,1.2880805E0,1.6059402E0,-5.3068817E-1,1.5182633E-2,-7.546335E-1,-1.1857355E0,2.9672644E-1,8.8567024E-1,1.1897497E0,-1.4764881E-1,6.5154785E-1,2.3319896E-1,7.755334E-2,7.0337325E-1,1.0136154E0,1.2820469E0,1.195939E0,-6.415575E-2,6.444406E-2,2.1511571E-2,4.650701E-2,6.456927E-2,4.8869066E-2,7.396104E-2,-1.8421238E-2,2.8675398E-2,7.040056E-2,5.6800902E-2,6.9063194E-2,7.607453E-2,7.873719E-2,5.805525E-2,7.793946E-2,8.9111365E-2,-3.610971E-2,-1.2419177E-2,1.3813788E-2,-4.594252E-2,-4.8913356E-2,-3.0846609E-2,-5.9547752E-2,8.75454E-2,1.1750367E-2,3.2111894E-2,6.712987E-2,2.744992E-2,7.257142E-2,5.220983E-2,-3.8440462E-2,2.2690456E-2,3.4114625E-2,-1.5696136E-2,3.263044E-3,2.8222052E-2,3.701449E-2,-5.1920827E-2,5.5193663E-2,4.0698033E-2,6.485992E-2,4.0732365E-2,4.3470692E-2,6.839689E-2],"categories":[],"categories_nodes":[],"categories_segments":[],"categories_sizes":[],"default_left":[0,0,0,0,0,0,0,0,0,0,0,0,0,0,0,0,0,0,0,0,0,0,0,0,0,0,0,0,0,0,0,0,0,0,0,0,0,0,0,0,0,0,0,0,0,0,0,0,0,0,0,0,0,0,0,0,0,0,0,0,0,0,0,0,0,0,0,0,0,0,0,0,0,0,0,0,0,0,0,0,0,0,0,0,0,0,0,0,0,0,0,0,0,0,0,0,0],"id":5,"left_children":[1,3,5,7,9,11,13,15,17,19,-1,21,23,25,27,29,31,33,35,-1,-1,37,39,41,43,45,47,49,51,53,55,57,59,61,63,65,67,69,71,73,75,77,79,81,83,85,87,-1,89,91,93,95,-1,-1,-1,-1,-1,-1,-1,-1,-1,-1,-1,-1,-1,-1,-1,-1,-1,-1,-1,-1,-1,-1,-1,-1,-1,-1,-1,-1,-1,-1,-1,-1,-1,-1,-1,-1,-1,-1,-1,-1,-1,-1,-1,-1,-1],"loss_changes":[5.7008133E4,1.4786953E3,9.501235E3,9.7756445E2,5.8027344E0,1.0439006E4,2.6459058E2,5.989302E2,1.12572266E2,1.0136719E0,0E0,3.846713E3,1.7062207E2,1.3454797E2,1.09173706E2,9.2401855E1,9.7525507E2,8.305957E1,3.8305664E1,0E0,0E0,1.4485723E3,1.3963008E3,8.697339E1,1.1014526E2,1.12684265E2,4.6715332E1,1.8418701E1,1.453585E2,7.678444E1,1.1311084E2,6.812268E1,2.1248428E2,1.935498E1,5.1416016E0,1.3958313E1,2.3154297E1,8.0694775E2,1.7584667E3,7.787539E2,1.6811914E2,7.6157494E0,1.1907532E2,9.679199E1,2.4825249E1,3.268109E1,8.869578E1,0E0,1.5527551E2,1.919043E1,4.1479492E-1,4.9850464E-2,0E0,0E0,0E0,0E0,0E0,0E0,0E0,0E0,0E0,0E0,0E0,0E0,0E0,0E0,0E0,0E0,0E0,0E0,0E0,0E0,0E0,0E0,0E0,0E0,0E0,0E0,0E0,0E0,0E0,0E0,0E0,0E0,0E0,0E0,0E0,0E0,0E0,0E0,0E0,0E0,0E0,0E0,0E0,0E0,0E0],"parents":[2147483647,0,0,1,1,2,2,3,3,4,4,5,5,6,6,7,7,8,8,9,9,11,11,12,12,13,13,14,14,15,15,16,16,17,17,18,18,21,21,22,22,23,23,24,24,25,25,26,26,27,27,28,28,29,29,30,30,31,31,32,32,33,33,34,34,35,35,36,36,37,37,38,38,39,39,40,40,41,41,42,42,43,43,44,44,45,45,46,46,48,48,49,49,50,50,51,51],"right_children":[2,4,6,8,10,12,14,16,18,20,-1,22,24,26,28,30,32,34,36,-1,-1,38,40,42,44,46,48,50,52,54,56,58,60,62,64,66,68,70,72,74,76,78,80,82,84,86,88,-1,90,92,94,96,-1,-1,-1,-1,-1,-1,-1,-1,-1,-1,-1,-1,-1,-1,-1,-1,-1,-1,-1,-1,-1,-1,-1,-1,-1,-1,-1,-1,-1,-1,-1,-1,-1,-1,-1,-1,-1,-1,-1,-1,-1,-1,-1,-1,-1],"split_conditions":[-1.3161044E0,3.5686145E0,3.6194627E0,2.7910964E0,1.8924749E0,4.9038677E0,1.3473849E0,8.02295E-1,-1.1964939E0,4.7639194E0,8.221137E-2,-6.4128146E-2,2.7910964E0,1.8686007E-1,1.1063287E0,-1.1707726E0,8.417644E-1,6.674436E0,8.584142E-1,8.91445E-2,7.912707E-2,1.1063287E0,8.02295E-1,-7.143598E-1,1.3473849E0,-2.878848E-1,-3.712927E-1,1.035007E0,-6.4128146E-2,8.417644E-1,-1.1964939E0,-1.1964939E0,1.8924749E0,-1.005921E0,-4.318169E-1,-7.143598E-1,1.035007E0,-1.422967E0,4.5600204E0,1.1063287E0,2.7910964E0,3.175779E0,7.434459E-1,-4.227987E-1,1.8924749E0,1.1063287E0,6.439483E0,7.755334E-2,1.1063287E0,6.439483E0,3.586823E0,1.8924749E0,-6.415575E-2,6.444406E-2,2.1511571E-2,4.650701E-2,6.456927E-2,4.8869066E-2,7.396104E-2,-1.8421238E-2,2.8675398E-2,7.040056E-2,5.6800902E-2,6.9063194E-2,7.607453E-2,7.873719E-2,5.805525E-2,7.793946E-2,8.9111365E-2,-3.610971E-2,-1.2419177E-2,1.3813788E-2,-4.594252E-2,-4.8913356E-2,-3.0846609E-2,-5.9547752E-2,8.75454E-2,1.1750367E-2,3.2111894E-2,6.712987E-2,2.744992E-2,7.257142E-2,5.220983E-2,-3.8440462E-2,2.2690456E-2,3.4114625E-2,-1.5696136E-2,3.263044E-3,2.8222052E-2,3.701449E-2,-5.1920827E-2,5.5193663E-2,4.0698033E-2,6.485992E-2,4.0732365E-2,4.3470692E-2,6.839689E-2],"split_indices":[1,39,65,50,4,49,4,4,0,10,0,0,50,3,42,3,0,35,2,0,0,42,4,5,4,4,1,5,0,0,0,0,4,5,2,5,5,0,51,42,50,27,5,5,4,42,44,0,42,44,33,4,0,0,0,0,0,0,0,0,0,0,0,0,0,0,0,0,0,0,0,0,0,0,0,0,0,0,0,0,0,0,0,0,0,0,0,0,0,0,0,0,0,0,0,0,0],"split_type":[0,0,0,0,0,0,0,0,0,0,0,0,0,0,0,0,0,0,0,0,0,0,0,0,0,0,0,0,0,0,0,0,0,0,0,0,0,0,0,0,0,0,0,0,0,0,0,0,0,0,0,0,0,0,0,0,0,0,0,0,0,0,0,0,0,0,0,0,0,0,0,0,0,0,0,0,0,0,0,0,0,0,0,0,0,0,0,0,0,0,0,0,0,0,0,0,0],"sum_hessian":[9.12656E4,2.2470553E4,6.879505E4,1.5450931E4,7.019621E3,6.2012105E4,6.782944E3,7.24003E3,8.210901E3,6.2328066E3,7.868146E2,5.8167945E4,3.8441582E3,5.1342036E3,1.6487397E3,4.834513E3,2.4055168E3,4.2292163E3,3.981685E3,6.037136E3,1.9567006E2,2.2139361E4,3.6028586E4,1.1562632E3,2.687895E3,2.6782268E3,2.4559768E3,1.5581346E3,9.060516E1,4.7354828E2,4.360965E3,1.2099152E3,1.1956016E3,2.1075642E3,2.1216519E3,4.894612E2,3.4922239E3,1.4932494E4,7.206866E3,2.5330988E4,1.0697599E4,3.734027E2,7.8286053E2,2.6253987E3,6.2496365E1,1.0833302E3,1.5948967E3,6.659787E1,2.3893792E3,1.1732966E3,3.84838E2,4.522424E1,4.5380924E1,1.5601692E2,3.1753134E2,1.2437815E3,3.117183E3,7.658354E2,4.4407974E2,8.6699603E2,3.2860562E2,3.6422733E2,1.7433369E3,7.874584E2,1.3341936E3,1.430089E2,3.464523E2,2.771254E3,7.2097E2,8.894974E3,6.0375205E3,5.633603E3,1.573263E3,9.648474E3,1.5682515E4,1.0679839E4,1.775945E1,3.199071E2,5.349561E1,3.2945508E2,4.5340546E2,9.3171344E2,1.6936852E3,3.0552649E1,3.1943714E1,1.0505659E3,3.2764175E1,1.060118E3,5.347787E2,2.3409705E3,4.84086E1,8.0143365E2,3.7186298E2,3.6910815E2,1.5729837E1,1.9981663E1,2.5242575E1],"tree_param":{"num_deleted":"0","num_feature":"73","num_nodes":"97","size_leaf_vector":"1"}},{"base_weights":[-1.0775109E-3,1.317307E0,-4.3422273E-1,1.1499721E0,1.6873537E0,-5.52762E-1,6.360426E-1,8.934317E-1,1.3764074E0,1.7015451E0,7.854982E-2,-6.545041E-1,9.686758E-1,5.2918684E-1,9.6835905E-1,1.0856862E0,5.058093E-1,1.2640479E0,1.4953502E0,8.535988E-2,7.5577825E-2,-3.3730862E-1,-8.5115165E-1,6.6078156E-1,1.1007085E0,4.3494388E-1,7.900167E-1,1.0264629E0,-4.299299E-2,1.1198084E0,5.1171076E-1,1.1060511E0,-1.0376343E-1,1.1248589E0,1.401515E0,1.2268322E0,1.5323098E0,-1.7217736E-1,-7.260214E-1,-7.2551644E-1,-1.1513373E0,2.8152052E-1,8.405242E-1,1.1302712E0,-1.4138125E-1,8.357789E-2,4.1797498E-1,7.4279535E-1,1.0325317E0,9.687422E-1,1.2549994E0,1.1405594E0,-6.252651E-2,6.078982E-2,4.341179E-2,2.0892821E-2,3.996598E-2,4.633309E-2,7.0577554E-2,-1.7584851E-2,2.716676E-2,6.46932E-2,5.327655E-2,7.3942505E-2,6.7061074E-2,7.5201444E-2,5.522709E-2,8.43198E-2,7.397249E-2,1.149034E-3,-3.153151E-2,-4.0039208E-2,1.7385598E-2,-3.3467375E-2,-6.333705E-2,-6.11459E-2,-4.6167817E-2,2.4572335E-2,9.099524E-3,7.3423766E-2,3.0762294E-2,6.913278E-2,4.952396E-2,-3.7052777E-2,2.1563476E-2,2.2723794E-2,-5.8095075E-2,3.780741E-2,-3.8421934E-4,5.6877017E-2,2.3764789E-3,5.3683218E-2,3.8364824E-2,5.960218E-2,7.570383E-2,4.1462105E-2,6.522726E-2],"categories":[],"categories_nodes":[],"categories_segments":[],"categories_sizes":[],"default_left":[0,0,0,0,0,0,0,0,0,0,0,0,0,0,0,0,0,0,0,0,0,0,0,0,0,0,0,0,0,0,0,0,0,0,0,0,0,0,0,0,0,0,0,0,0,0,0,0,0,0,0,0,0,0,0,0,0,0,0,0,0,0,0,0,0,0,0,0,0,0,0,0,0,0,0,0,0,0,0,0,0,0,0,0,0,0,0,0,0,0,0,0,0,0,0,0,0],"id":6,"left_children":[1,3,5,7,9,11,13,15,17,19,-1,21,23,25,27,29,31,33,35,-1,-1,37,39,41,43,45,47,49,51,53,55,57,59,61,63,65,67,69,71,73,75,77,79,81,83,-1,85,87,89,91,93,95,-1,-1,-1,-1,-1,-1,-1,-1,-1,-1,-1,-1,-1,-1,-1,-1,-1,-1,-1,-1,-1,-1,-1,-1,-1,-1,-1,-1,-1,-1,-1,-1,-1,-1,-1,-1,-1,-1,-1,-1,-1,-1,-1,-1,-1],"loss_changes":[5.172107E4,1.3827539E3,8.649799E3,8.9363477E2,5.8378906E0,9.50207E3,2.4024512E2,5.3828076E2,1.0542285E2,1.1640625E0,0E0,3.5878594E3,1.5479492E2,1.2576233E2,9.723767E1,9.343848E1,8.800354E2,7.745215E1,3.5344727E1,0E0,0E0,1.4131382E3,1.337457E3,7.849667E1,9.9187744E1,7.7863525E1,1.3908203E1,1.7950928E1,1.3371346E2,1.0790039E2,6.6416855E0,6.355371E1,1.9202408E2,1.8166016E1,5.625E0,1.3042114E1,2.3035156E1,1.3831213E3,5.2759106E2,7.593408E2,1.684541E2,7.614094E0,1.0915851E2,8.972876E1,2.2727259E1,0E0,2.1658167E2,1.1601746E1,2.2200089E1,2.4718628E1,1.1407471E0,3.4793854E-2,0E0,0E0,0E0,0E0,0E0,0E0,0E0,0E0,0E0,0E0,0E0,0E0,0E0,0E0,0E0,0E0,0E0,0E0,0E0,0E0,0E0,0E0,0E0,0E0,0E0,0E0,0E0,0E0,0E0,0E0,0E0,0E0,0E0,0E0,0E0,0E0,0E0,0E0,0E0,0E0,0E0,0E0,0E0,0E0,0E0],"parents":[2147483647,0,0,1,1,2,2,3,3,4,4,5,5,6,6,7,7,8,8,9,9,11,11,12,12,13,13,14,14,15,15,16,16,17,17,18,18,21,21,22,22,23,23,24,24,25,25,26,26,27,27,28,28,29,29,30,30,31,31,32,32,33,33,34,34,35,35,36,36,37,37,38,38,39,39,40,40,41,41,42,42,43,43,44,44,46,46,47,47,48,48,49,49,50,50,51,51],"right_children":[2,4,6,8,10,12,14,16,18,20,-1,22,24,26,28,30,32,34,36,-1,-1,38,40,42,44,46,48,50,52,54,56,58,60,62,64,66,68,70,72,74,76,78,80,82,84,-1,86,88,90,92,94,96,-1,-1,-1,-1,-1,-1,-1,-1,-1,-1,-1,-1,-1,-1,-1,-1,-1,-1,-1,-1,-1,-1,-1,-1,-1,-1,-1,-1,-1,-1,-1,-1,-1,-1,-1,-1,-1,-1,-1,-1,-1,-1,-1,-1,-1],"split_conditions":[-1.3161044E0,3.5686145E0,3.6194627E0,2.7910964E0,1.8924749E0,4.9038677E0,1.3473849E0,8.02295E-1,-1.1964939E0,4.7639194E0,7.854982E-2,-6.4128146E-2,2.7910964E0,8.656764E-1,1.1063287E0,1.1814741E0,8.417644E-1,6.674436E0,8.584142E-1,8.535988E-2,7.5577825E-2,8.02295E-1,8.02295E-1,-7.143598E-1,1.3473849E0,-6.4128146E-2,3.1027296E0,3.1027296E0,-6.4128146E-2,6.8265977E0,2.572051E-1,-1.1964939E0,1.8924749E0,-7.143598E-1,-1.3123755E-1,-7.143598E-1,-7.143598E-1,3.5375266E0,2.1735277E0,5.080652E0,1.8924749E0,-1.2974821E0,1.6032359E-1,-4.227987E-1,1.8924749E0,8.357789E-2,1.1063287E0,1.5035297E0,1.1063287E0,6.439483E0,1.5444927E0,1.8924749E0,-6.252651E-2,6.078982E-2,4.341179E-2,2.0892821E-2,3.996598E-2,4.633309E-2,7.0577554E-2,-1.7584851E-2,2.716676E-2,6.46932E-2,5.327655E-2,7.3942505E-2,6.7061074E-2,7.5201444E-2,5.522709E-2,8.43198E-2,7.397249E-2,1.149034E-3,-3.153151E-2,-4.0039208E-2,1.7385598E-2,-3.3467375E-2,-6.333705E-2,-6.11459E-2,-4.6167817E-2,2.4572335E-2,9.099524E-3,7.3423766E-2,3.0762294E-2,6.913278E-2,4.952396E-2,-3.7052777E-2,2.1563476E-2,2.2723794E-2,-5.8095075E-2,3.780741E-2,-3.8421934E-4,5.6877017E-2,2.3764789E-3,5.3683218E-2,3.8364824E-2,5.960218E-2,7.570383E-2,4.1462105E-2,6.522726E-2],"split_indices":[1,39,65,50,4,49,4,4,0,10,0,0,50,3,42,0,0,35,2,0,0,4,4,5,4,0,15,15,0,68,4,0,4,5,5,5,5,37,61,47,4,5,5,5,4,0,42,2,42,44,3,4,0,0,0,0,0,0,0,0,0,0,0,0,0,0,0,0,0,0,0,0,0,0,0,0,0,0,0,0,0,0,0,0,0,0,0,0,0,0,0,0,0,0,0,0,0],"split_type":[0,0,0,0,0,0,0,0,0,0,0,0,0,0,0,0,0,0,0,0,0,0,0,0,0,0,0,0,0,0,0,0,0,0,0,0,0,0,0,0,0,0,0,0,0,0,0,0,0,0,0,0,0,0,0,0,0,0,0,0,0,0,0,0,0,0,0,0,0,0,0,0,0,0,0,0,0,0,0,0,0,0,0,0,0,0,0,0,0,0,0,0,0,0,0,0,0],"sum_hessian":[9.056772E4,2.2395912E4,6.8171805E4,1.5427906E4,6.968006E3,6.137515E4,6.796658E3,7.2379688E3,8.1899375E3,6.1854946E3,7.825112E2,5.752924E4,3.845911E3,5.1471025E3,1.6495559E3,4.835686E3,2.4022827E3,4.223908E3,3.9660293E3,5.9907627E3,1.9473189E2,2.2018693E4,3.5510543E4,1.1580823E3,2.6878286E3,3.7851663E3,1.3619363E3,1.5600002E3,8.955568E1,4.562381E3,2.7330493E2,1.2096674E3,1.1926154E3,2.1082969E3,2.1156113E3,4.8844894E2,3.4775803E3,1.545592E4,6.5627734E3,2.5038477E4,1.0472068E4,3.7420023E2,7.83882E2,2.625598E3,6.2230755E1,4.8517677E1,3.7366484E3,1.147114E3,2.1482231E2,1.254157E3,3.0584323E2,4.5241203E1,4.431448E1,3.2965244E3,1.2658564E3,2.100225E2,6.3282444E1,7.674281E2,4.4223932E2,8.630199E2,3.295955E2,5.3654877E2,1.5717482E3,9.05484E2,1.2101272E3,1.4235535E2,3.460936E2,8.720009E2,2.6055793E3,1.0842201E4,4.6137183E3,6.136124E3,4.2664926E2,2.2688496E4,2.3499812E3,7.962773E3,2.5092952E3,1.17497505E2,2.5670273E2,2.039372E2,5.799448E2,9.2930554E2,1.6962924E3,3.019613E1,3.2034626E1,3.6537222E3,8.292631E1,1.127177E3,1.9937E1,1.9375531E2,2.1067007E1,8.186243E2,4.3553268E2,2.5537521E2,5.046802E1,1.9998537E1,2.5242664E1],"tree_param":{"num_deleted":"0","num_feature":"73","num_nodes":"97","size_leaf_vector":"1"}},{"base_weights":[-1.1089302E-3,1.258762E0,-4.1653243E-1,1.0963109E0,1.6206615E0,-5.308407E-1,6.0356086E-1,8.50176E-1,1.3142905E0,1.6347581E0,7.52737E-2,-6.2893236E-1,9.2123026E-1,5.0173986E-1,9.211668E-1,1.0327516E0,4.816978E-1,1.2049772E0,1.4304097E0,8.201762E-2,7.2385415E-2,-3.221188E-1,-8.210394E-1,6.2743074E-1,1.0475442E0,4.1231027E-1,7.493494E-1,9.75738E-1,-4.06303E-2,7.333244E-1,1.0937797E0,1.0529181E0,-9.8848745E-2,1.0701456E0,1.3386763E0,1.3798066E0,1.6285763E0,-1.6406281E-1,-6.9693094E-1,-6.9762915E-1,-1.1190077E0,2.671159E-1,7.9844207E-1,1.0756214E0,-1.3542198E-1,5.833236E-1,2.9515174E-1,7.04407E-1,9.8033196E-1,9.105887E-1,1.1686738E0,1.0894843E0,-6.100511E-2,6.085179E-2,2.2528326E-2,4.1010816E-2,6.025166E-2,4.3983128E-2,6.751052E-2,-1.6785404E-2,2.5751412E-2,6.405374E-2,5.124252E-2,6.2507235E-2,6.945347E-2,7.781704E-2,6.223002E-2,8.3353594E-2,7.028615E-2,-2.2279765E-2,6.7805084E-3,-3.846879E-2,1.647759E-2,-4.5861844E-2,-2.8195575E-2,-5.9538174E-2,-4.4609457E-2,1.04298815E-2,2.9731557E-2,6.1189782E-2,2.4403794E-2,6.601376E-2,4.7040768E-2,-3.5723273E-2,2.0499757E-2,3.0434841E-2,-5.9796157E-3,8.124307E-3,2.5447652E-2,6.351377E-2,3.417227E-2,5.399534E-2,2.267002E-3,4.2323887E-2,5.8625538E-2,5.5490237E-2,7.113038E-2,3.9056506E-2,6.251603E-2],"categories":[],"categories_nodes":[],"categories_segments":[],"categories_sizes":[],"default_left":[0,0,0,0,0,0,0,0,0,0,0,0,0,0,0,0,0,0,0,0,0,0,0,0,0,0,0,0,0,0,0,0,0,0,0,0,0,0,0,0,0,0,0,0,0,0,0,0,0,0,0,0,0,0,0,0,0,0,0,0,0,0,0,0,0,0,0,0,0,0,0,0,0,0,0,0,0,0,0,0,0,0,0,0,0,0,0,0,0,0,0,0,0,0,0,0,0,0,0],"id":7,"left_children":[1,3,5,7,9,11,13,15,17,19,-1,21,23,25,27,29,31,33,35,-1,-1,37,39,41,43,45,47,49,51,53,55,57,59,61,63,65,67,69,71,73,75,77,79,81,83,85,87,89,91,93,95,97,-1,-1,-1,-1,-1,-1,-1,-1,-1,-1,-1,-1,-1,-1,-1,-1,-1,-1,-1,-1,-1,-1,-1,-1,-1,-1,-1,-1,-1,-1,-1,-1,-1,-1,-1,-1,-1,-1,-1,-1,-1,-1,-1,-1,-1,-1,-1],"loss_changes":[4.701068E4,1.3056289E3,7.877129E3,8.2266406E2,5.9628906E0,8.653137E3,2.1907715E2,4.851748E2,9.9765625E1,1.3457031E0,0E0,3.3531387E3,1.411897E2,1.1351465E2,8.677246E1,8.65083E1,7.958589E2,7.282715E1,3.473242E1,0E0,0E0,1.2978281E3,1.2849141E3,7.101315E1,8.957715E1,7.560687E1,1.2633484E1,1.7291626E1,1.2318404E2,1.1149515E2,1.1984717E2,5.9698364E1,1.7357893E2,1.7279785E1,5.661377E0,7.1115234E1,1.7856445E0,1.3007611E3,4.8382666E2,7.255469E2,1.6439355E2,6.895338E0,1.0242679E2,8.381152E1,2.0813421E1,2.7670898E1,6.3774353E1,1.1723145E1,1.999884E1,1.7573853E1,2.3704224E0,1.8364334E-1,0E0,0E0,0E0,0E0,0E0,0E0,0E0,0E0,0E0,0E0,0E0,0E0,0E0,0E0,0E0,0E0,0E0,0E0,0E0,0E0,0E0,0E0,0E0,0E0,0E0,0E0,0E0,0E0,0E0,0E0,0E0,0E0,0E0,0E0,0E0,0E0,0E0,0E0,0E0,0E0,0E0,0E0,0E0,0E0,0E0,0E0,0E0],"parents":[2147483647,0,0,1,1,2,2,3,3,4,4,5,5,6,6,7,7,8,8,9,9,11,11,12,12,13,13,14,14,15,15,16,16,17,17,18,18,21,21,22,22,23,23,24,24,25,25,26,26,27,27,28,28,29,29,30,30,31,31,32,32,33,33,34,34,35,35,36,36,37,37,38,38,39,39,40,40,41,41,42,42,43,43,44,44,45,45,46,46,47,47,48,48,49,49,50,50,51,51],"right_children":[2,4,6,8,10,12,14,16,18,20,-1,22,24,26,28,30,32,34,36,-1,-1,38,40,42,44,46,48,50,52,54,56,58,60,62,64,66,68,70,72,74,76,78,80,82,84,86,88,90,92,94,96,98,-1,-1,-1,-1,-1,-1,-1,-1,-1,-1,-1,-1,-1,-1,-1,-1,-1,-1,-1,-1,-1,-1,-1,-1,-1,-1,-1,-1,-1,-1,-1,-1,-1,-1,-1,-1,-1,-1,-1,-1,-1,-1,-1,-1,-1,-1,-1],"split_conditions":[-1.3161044E0,3.5686145E0,3.6194627E0,2.7910964E0,1.8924749E0,4.9038677E0,1.3473849E0,8.02295E-1,-1.1964939E0,4.7639194E0,7.52737E-2,-6.4128146E-2,2.7910964E0,8.656764E-1,1.1063287E0,-9.445005E-1,8.417644E-1,6.674436E0,1.035007E0,8.201762E-2,7.2385415E-2,8.02295E-1,8.02295E-1,-7.143598E-1,1.3473849E0,-2.878848E-1,3.1027296E0,1.035007E0,-6.4128146E-2,8.417644E-1,-1.1964939E0,-1.1964939E0,1.8924749E0,-1.005921E0,-4.318169E-1,-4.227987E-1,1.3473849E0,-1.1964939E0,2.1735277E0,1.1063287E0,1.8924749E0,3.175779E0,7.434459E-1,-4.227987E-1,1.8924749E0,1.5035297E0,-3.9412044E-2,-3.712927E-1,1.1063287E0,3.1027296E0,1.3182206E0,6.394043E-1,-6.100511E-2,6.085179E-2,2.2528326E-2,4.1010816E-2,6.025166E-2,4.3983128E-2,6.751052E-2,-1.6785404E-2,2.5751412E-2,6.405374E-2,5.124252E-2,6.2507235E-2,6.945347E-2,7.781704E-2,6.223002E-2,8.3353594E-2,7.028615E-2,-2.2279765E-2,6.7805084E-3,-3.846879E-2,1.647759E-2,-4.5861844E-2,-2.8195575E-2,-5.9538174E-2,-4.4609457E-2,1.04298815E-2,2.9731557E-2,6.1189782E-2,2.4403794E-2,6.601376E-2,4.7040768E-2,-3.5723273E-2,2.0499757E-2,3.0434841E-2,-5.9796157E-3,8.124307E-3,2.5447652E-2,6.351377E-2,3.417227E-2,5.399534E-2,2.267002E-3,4.2323887E-2,5.8625538E-2,5.5490237E-2,7.113038E-2,3.9056506E-2,6.251603E-2],"split_indices":[1,39,65,50,4,49,4,4,0,10,0,0,50,3,42,3,0,35,5,0,0,4,4,5,4,4,15,5,0,0,0,0,4,5,2,5,4,0,61,42,4,27,5,5,4,2,3,1,42,15,3,3,0,0,0,0,0,0,0,0,0,0,0,0,0,0,0,0,0,0,0,0,0,0,0,0,0,0,0,0,0,0,0,0,0,0,0,0,0,0,0,0,0,0,0,0,0,0,0],"split_type":[0,0,0,0,0,0,0,0,0,0,0,0,0,0,0,0,0,0,0,0,0,0,0,0,0,0,0,0,0,0,0,0,0,0,0,0,0,0,0,0,0,0,0,0,0,0,0,0,0,0,0,0,0,0,0,0,0,0,0,0,0,0,0,0,0,0,0,0,0,0,0,0,0,0,0,0,0,0,0,0,0,0,0,0,0,0,0,0,0,0,0,0,0,0,0,0,0,0,0],"sum_hessian":[8.981748E4,2.2271012E4,6.754646E4,1.5376894E4,6.894117E3,6.0741074E4,6.805386E3,7.2268477E3,8.150046E3,6.1181304E3,7.7598694E2,5.689861E4,3.842467E3,5.157441E3,1.6479454E3,4.8298506E3,2.3969973E3,4.2102114E3,3.9398345E3,5.9248525E3,1.9327797E2,2.1910799E4,3.498781E4,1.159127E3,2.68334E3,3.7931838E3,1.3642571E3,1.5595343E3,8.841109E1,8.224202E2,4.0074302E3,1.2074698E3,1.1895275E3,2.105568E3,2.1046433E3,3.1515093E3,7.8832513E2,1.5413967E4,6.496832E3,2.4745803E4,1.0242008E4,3.7491113E2,7.842158E2,2.6213887E3,6.1951313E1,1.5385662E3,2.2546177E3,1.1491903E3,2.1506676E2,1.1747948E3,3.847395E2,4.5184868E1,4.322622E1,3.0083038E2,5.2158984E2,1.1636797E3,2.8437505E3,7.680949E2,4.3937494E2,8.5911444E2,3.3041296E2,3.6218497E2,1.743383E3,7.828732E2,1.3217701E3,1.3574165E3,1.7940928E3,6.6077386E2,1.2755124E2,7.9472026E3,7.466764E3,6.0690986E3,4.277334E2,9.360446E3,1.5385355E4,7.773777E3,2.468231E3,3.2111548E2,5.3795643E1,3.2820544E2,4.5601038E2,9.247567E2,1.696632E3,2.9837603E1,3.211371E1,1.4853595E3,5.3206753E1,1.393763E3,8.608546E2,3.662081E1,1.1125695E3,1.9399023E2,2.1076513E1,9.5089E2,2.2390486E2,3.2137125E2,6.3368233E1,1.9717571E1,2.5467297E1],"tree_param":{"num_deleted":"0","num_feature":"73","num_nodes":"99","size_leaf_vector":"1"}},{"base_weights":[-1.114472E-3,1.2053094E0,-3.996607E-1,1.0469308E0,1.5611737E0,-5.0990576E-1,5.731345E-1,8.10067E-1,1.2575618E0,1.5752759E0,7.231914E-2,-6.044623E-1,8.772327E-1,4.7597468E-1,8.773222E-1,9.839296E-1,4.5909137E-1,1.1507148E0,1.3715181E0,7.9042785E-2,6.9491945E-2,-3.0761397E-1,-7.922358E-1,5.962973E-1,9.983922E-1,3.9098158E-1,7.115506E-1,9.286497E-1,-3.8445834E-2,1.0171936E0,4.2896175E-1,1.0037602E0,-9.4170965E-2,1.0195751E0,1.2813615E0,1.1076425E0,1.4080884E0,-4.741172E-1,3.2485824E-2,-6.709188E-1,-1.0883977E0,2.535408E-1,7.593782E-1,9.45092E-1,8.052798E-2,7.82724E-2,3.7488493E-1,6.1600465E-2,6.921284E-1,8.1514007E-1,1.0320618E0,1.0418789E0,-5.957848E-2,5.542622E-2,3.8970824E-2,4.9737018E-2,1.9100575E-2,4.1796695E-2,6.471028E-2,-1.6021118E-2,2.4421368E-2,4.8475783E-2,6.053976E-2,6.786349E-2,6.112046E-2,6.890685E-2,4.9492057E-2,6.814606E-2,7.889789E-2,-3.2537572E-2,-1.094342E-2,1.4012838E-2,-4.3588366E-2,-3.080807E-2,-6.0454827E-2,-5.8024473E-2,-4.3117836E-2,2.261677E-2,7.96359E-3,6.74359E-2,2.7533172E-2,6.200968E-2,3.8117465E-2,2.0464426E-2,-5.6718107E-2,3.655669E-2,-4.6773467E-2,4.9446862E-2,3.0557116E-2,5.2492958E-2,3.1073034E-2,3.7161518E-2,6.016748E-2],"categories":[],"categories_nodes":[],"categories_segments":[],"categories_sizes":[],"default_left":[0,0,0,0,0,0,0,0,0,0,0,0,0,0,0,0,0,0,0,0,0,0,0,0,0,0,0,0,0,0,0,0,0,0,0,0,0,0,0,0,0,0,0,0,0,0,0,0,0,0,0,0,0,0,0,0,0,0,0,0,0,0,0,0,0,0,0,0,0,0,0,0,0,0,0,0,0,0,0,0,0,0,0,0,0,0,0,0,0,0,0,0,0],"id":8,"left_children":[1,3,5,7,9,11,13,15,17,19,-1,21,23,25,27,29,31,33,35,-1,-1,37,39,41,43,45,47,49,51,53,55,57,59,61,63,65,67,69,71,73,75,77,79,81,-1,-1,83,-1,85,87,89,91,-1,-1,-1,-1,-1,-1,-1,-1,-1,-1,-1,-1,-1,-1,-1,-1,-1,-1,-1,-1,-1,-1,-1,-1,-1,-1,-1,-1,-1,-1,-1,-1,-1,-1,-1,-1,-1,-1,-1,-1,-1],"loss_changes":[4.2800395E4,1.2423047E3,7.1766006E3,7.612344E2,6.154297E0,7.8841895E3,2.0035571E2,4.388418E2,9.516797E1,1.5546875E0,0E0,3.1357754E3,1.2922754E2,1.0279895E2,7.755005E1,8.793994E1,7.210911E2,6.896631E1,3.4330566E1,0E0,0E0,1.2348525E3,1.2366582E3,6.441876E1,8.4049805E1,7.051257E1,1.1923645E1,1.6435669E1,1.1361904E2,9.677637E1,6.4371986E0,5.6390015E1,1.5693924E2,1.75542E1,5.782715E0,1.2497314E1,2.1672363E1,6.596321E2,1.606469E3,7.1899023E2,1.6094434E2,6.8701706E0,9.4956665E1,1.3098389E2,0E0,0E0,1.9575061E2,0E0,8.533069E1,2.5339172E1,4.432068E0,2.8676224E-1,0E0,0E0,0E0,0E0,0E0,0E0,0E0,0E0,0E0,0E0,0E0,0E0,0E0,0E0,0E0,0E0,0E0,0E0,0E0,0E0,0E0,0E0,0E0,0E0,0E0,0E0,0E0,0E0,0E0,0E0,0E0,0E0,0E0,0E0,0E0,0E0,0E0,0E0,0E0,0E0,0E0],"parents":[2147483647,0,0,1,1,2,2,3,3,4,4,5,5,6,6,7,7,8,8,9,9,11,11,12,12,13,13,14,14,15,15,16,16,17,17,18,18,21,21,22,22,23,23,24,24,25,25,26,26,27,27,28,28,29,29,30,30,31,31,32,32,33,33,34,34,35,35,36,36,37,37,38,38,39,39,40,40,41,41,42,42,43,43,46,46,48,48,49,49,50,50,51,51],"right_children":[2,4,6,8,10,12,14,16,18,20,-1,22,24,26,28,30,32,34,36,-1,-1,38,40,42,44,46,48,50,52,54,56,58,60,62,64,66,68,70,72,74,76,78,80,82,-1,-1,84,-1,86,88,90,92,-1,-1,-1,-1,-1,-1,-1,-1,-1,-1,-1,-1,-1,-1,-1,-1,-1,-1,-1,-1,-1,-1,-1,-1,-1,-1,-1,-1,-1,-1,-1,-1,-1,-1,-1,-1,-1,-1,-1,-1,-1],"split_conditions":[-1.3161044E0,3.5686145E0,3.6194627E0,2.7910964E0,1.8924749E0,4.9038677E0,1.3473849E0,8.02295E-1,-1.1964939E0,4.7639194E0,7.231914E-2,-6.4128146E-2,2.7910964E0,8.656764E-1,1.1063287E0,1.1814741E0,8.417644E-1,6.674436E0,8.584142E-1,7.9042785E-2,6.9491945E-2,1.1063287E0,8.02295E-1,-7.143598E-1,1.6181293E0,-6.4128146E-2,-3.712927E-1,1.6032359E-1,-6.4128146E-2,6.8265977E0,-1.2974821E0,-1.1964939E0,1.8924749E0,1.035007E0,-1.3123755E-1,-7.143598E-1,1.035007E0,-1.422967E0,4.5600204E0,5.080652E0,1.8924749E0,-1.2974821E0,1.6032359E-1,-4.227987E-1,8.052798E-2,7.82724E-2,1.1063287E0,6.1600465E-2,1.1063287E0,-7.143598E-1,3.586823E0,1.8924749E0,-5.957848E-2,5.542622E-2,3.8970824E-2,4.9737018E-2,1.9100575E-2,4.1796695E-2,6.471028E-2,-1.6021118E-2,2.4421368E-2,4.8475783E-2,6.053976E-2,6.786349E-2,6.112046E-2,6.890685E-2,4.9492057E-2,6.814606E-2,7.889789E-2,-3.2537572E-2,-1.094342E-2,1.4012838E-2,-4.3588366E-2,-3.080807E-2,-6.0454827E-2,-5.8024473E-2,-4.3117836E-2,2.261677E-2,7.96359E-3,6.74359E-2,2.7533172E-2,6.200968E-2,3.8117465E-2,2.0464426E-2,-5.6718107E-2,3.655669E-2,-4.6773467E-2,4.9446862E-2,3.0557116E-2,5.2492958E-2,3.1073034E-2,3.7161518E-2,6.016748E-2],"split_indices":[1,39,65,50,4,49,4,4,0,10,0,0,50,3,42,0,0,35,2,0,0,42,4,5,5,0,1,5,0,68,5,0,4,5,5,5,5,0,51,47,4,5,5,5,0,0,42,0,42,5,33,4,0,0,0,0,0,0,0,0,0,0,0,0,0,0,0,0,0,0,0,0,0,0,0,0,0,0,0,0,0,0,0,0,0,0,0,0,0,0,0,0,0],"split_type":[0,0,0,0,0,0,0,0,0,0,0,0,0,0,0,0,0,0,0,0,0,0,0,0,0,0,0,0,0,0,0,0,0,0,0,0,0,0,0,0,0,0,0,0,0,0,0,0,0,0,0,0,0,0,0,0,0,0,0,0,0,0,0,0,0,0,0,0,0,0,0,0,0,0,0,0,0,0,0,0,0,0,0,0,0,0,0,0,0,0,0,0,0],"sum_hessian":[8.901238E4,2.2102492E4,6.690989E4,1.5300929E4,6.8015635E3,6.0099938E4,6.809957E3,7.2067695E3,8.094159E3,6.0339673E3,7.6759625E2,5.626569E4,3.8342437E3,5.1655117E3,1.644445E3,4.816788E3,2.3899814E3,4.189291E3,3.9048682E3,5.8425776E3,1.9138968E2,2.1803174E4,3.446252E4,1.1591544E3,2.6750894E3,3.8001904E3,1.3653215E3,1.5572446E3,8.720032E1,4.5426616E3,2.7412662E2,1.2036143E3,1.1863671E3,2.099871E3,2.0894197E3,4.832512E2,3.421617E3,1.4636879E4,7.1662954E3,2.4452781E4,1.0009736E4,3.7555377E2,7.8360065E2,2.4656604E3,2.09429E2,4.8692585E1,3.7514978E3,4.4440025E1,1.3208815E3,7.5130835E2,8.059363E2,4.5076145E1,4.2124172E1,3.2764304E3,1.2662312E3,1.7748049E1,2.5637857E2,7.679659E2,4.356484E2,8.552884E2,3.3107864E2,1.6742358E3,4.2563528E2,8.933619E2,1.1960579E3,1.3985985E2,3.4339133E2,2.7176458E3,7.0397125E2,8.648533E3,5.9883457E3,5.6261787E3,1.5401167E3,2.2198637E4,2.2541458E3,7.5826724E3,2.4270642E3,1.1801857E2,2.575352E2,2.0195242E2,5.816482E2,9.38311E2,1.5273494E3,3.6693777E3,8.212022E1,1.2911033E3,2.9778263E1,4.0126364E2,3.5004468E2,7.692368E2,3.6699497E1,1.9968472E1,2.5107672E1],"tree_param":{"num_deleted":"0","num_feature":"73","num_nodes":"93","size_leaf_vector":"1"}},{"base_weights":[-1.1136017E-3,1.1560792E0,-3.8361463E-1,1.0010983E0,1.5077327E0,-4.899591E-1,5.445536E-1,7.725256E-1,1.2053618E0,1.521924E0,6.9635235E-2,-5.8113015E-1,8.3597386E-1,4.5174694E-1,8.3628505E-1,9.383416E-1,4.3783322E-1,1.1004761E0,1.3177444E0,1.527525E0,6.685108E-2,-2.9394358E-1,-7.645874E-1,5.669964E-1,9.52373E-1,3.21241E-1,5.9383374E-1,8.8459957E-1,-3.640604E-2,5.4031605E-1,9.8176575E-1,9.580579E-1,-8.9716956E-2,9.7247165E-1,1.2286797E0,7.421949E-2,1.2598429E0,7.6615654E-2,6.776301E-2,-1.4151494E-1,-6.5827525E-1,-6.4525807E-1,-1.0592996E0,2.4066399E-1,7.227098E-1,9.7955114E-1,-1.7656852E-1,5.4363376E-1,1.69477E-1,5.391994E-1,9.2261875E-1,8.305448E-1,1.1008404E0,9.977512E-1,-5.8235355E-2,5.3804237E-2,1.3805779E-2,5.0994184E-2,1.9589685E-2,3.9755058E-2,6.2136788E-2,-1.52903665E-2,2.3169598E-2,5.6864757E-2,4.5758557E-2,5.701012E-2,6.396946E-2,5.8377612E-2,7.5452015E-2,-2.027328E-2,6.7767613E-3,-3.6361072E-2,1.4896191E-2,-2.9588103E-2,-5.8938045E-2,-5.3243738E-2,9.400778E-2,9.255654E-3,2.7583316E-2,5.6156855E-2,2.1733174E-2,4.6404272E-2,7.8668796E-2,-3.6255922E-2,1.7100234E-2,2.8503025E-2,-1.5221544E-2,6.3453073E-4,2.3893422E-2,2.8201059E-2,-7.1567395E-3,5.1619798E-2,-1.821042E-3,4.6652574E-2,3.175774E-2,5.2000877E-2,6.777134E-2,3.5111517E-2,5.7745393E-2],"categories":[],"categories_nodes":[],"categories_segments":[],"categories_sizes":[],"default_left":[0,0,0,0,0,0,0,0,0,0,0,0,0,0,0,0,0,0,0,0,0,0,0,0,0,0,0,0,0,0,0,0,0,0,0,0,0,0,0,0,0,0,0,0,0,0,0,0,0,0,0,0,0,0,0,0,0,0,0,0,0,0,0,0,0,0,0,0,0,0,0,0,0,0,0,0,0,0,0,0,0,0,0,0,0,0,0,0,0,0,0,0,0,0,0,0,0,0,0],"id":9,"left_children":[1,3,5,7,9,11,13,15,17,19,-1,21,23,25,27,29,31,33,35,37,-1,39,41,43,45,47,49,51,53,55,57,59,61,63,65,-1,67,-1,-1,69,71,73,75,77,79,81,83,85,87,89,91,93,95,97,-1,-1,-1,-1,-1,-1,-1,-1,-1,-1,-1,-1,-1,-1,-1,-1,-1,-1,-1,-1,-1,-1,-1,-1,-1,-1,-1,-1,-1,-1,-1,-1,-1,-1,-1,-1,-1,-1,-1,-1,-1,-1,-1,-1,-1],"loss_changes":[3.9022E4,1.1903398E3,6.5406436E3,7.079746E2,6.399414E0,7.1875156E3,1.8354895E2,3.9765674E2,9.147656E1,1.7792969E0,0E0,2.9301484E3,1.1853833E2,9.544324E1,6.9358765E1,8.176904E1,6.5440234E2,6.5734375E1,3.3274414E1,3.0078125E-1,0E0,1.2040708E3,1.1920977E3,5.853311E1,8.225049E1,9.0902954E1,4.3293762E1,1.6160645E1,1.04929695E2,6.678235E1,9.634863E1,5.350476E1,1.4191975E2,1.7489258E1,6.1401367E0,0E0,6.248242E1,0E0,0E0,1.118419E3,4.221443E2,6.880869E2,1.6417578E2,6.2547245E0,8.935559E1,7.6427734E1,1.8825157E1,2.4899872E1,7.7714386E1,3.6215942E1,3.6960907E1,2.3753296E1,1.657196E0,3.7067032E-1,0E0,0E0,0E0,0E0,0E0,0E0,0E0,0E0,0E0,0E0,0E0,0E0,0E0,0E0,0E0,0E0,0E0,0E0,0E0,0E0,0E0,0E0,0E0,0E0,0E0,0E0,0E0,0E0,0E0,0E0,0E0,0E0,0E0,0E0,0E0,0E0,0E0,0E0,0E0,0E0,0E0,0E0,0E0,0E0,0E0],"parents":[2147483647,0,0,1,1,2,2,3,3,4,4,5,5,6,6,7,7,8,8,9,9,11,11,12,12,13,13,14,14,15,15,16,16,17,17,18,18,19,19,21,21,22,22,23,23,24,24,25,25,26,26,27,27,28,28,29,29,30,30,31,31,32,32,33,33,34,34,36,36,39,39,40,40,41,41,42,42,43,43,44,44,45,45,46,46,47,47,48,48,49,49,50,50,51,51,52,52,53,53],"right_children":[2,4,6,8,10,12,14,16,18,20,-1,22,24,26,28,30,32,34,36,38,-1,40,42,44,46,48,50,52,54,56,58,60,62,64,66,-1,68,-1,-1,70,72,74,76,78,80,82,84,86,88,90,92,94,96,98,-1,-1,-1,-1,-1,-1,-1,-1,-1,-1,-1,-1,-1,-1,-1,-1,-1,-1,-1,-1,-1,-1,-1,-1,-1,-1,-1,-1,-1,-1,-1,-1,-1,-1,-1,-1,-1,-1,-1,-1,-1,-1,-1,-1,-1],"split_conditions":[-1.3161044E0,3.5686145E0,3.6194627E0,2.7910964E0,1.8924749E0,4.9038677E0,1.3473849E0,8.02295E-1,-1.1964939E0,4.7639194E0,6.9635235E-2,-6.4128146E-2,2.7910964E0,1.8686007E-1,1.1063287E0,-1.1707726E0,8.417644E-1,6.674436E0,-7.143598E-1,4.513504E0,6.685108E-2,8.02295E-1,8.02295E-1,-7.143598E-1,1.3473849E0,-2.878848E-1,3.1027296E0,3.1027296E0,-6.4128146E-2,8.417644E-1,1.1814741E0,-1.1964939E0,1.8924749E0,-7.143598E-1,-4.318169E-1,7.421949E-2,1.035007E0,7.6615654E-2,6.776301E-2,-1.1964939E0,2.1735277E0,5.080652E0,2.7910964E0,3.175779E0,7.434459E-1,1.6181293E0,1.8924749E0,1.1063287E0,6.439483E0,1.5035297E0,1.1063287E0,6.439483E0,1.5444927E0,6.394043E-1,-5.8235355E-2,5.3804237E-2,1.3805779E-2,5.0994184E-2,1.9589685E-2,3.9755058E-2,6.2136788E-2,-1.52903665E-2,2.3169598E-2,5.6864757E-2,4.5758557E-2,5.701012E-2,6.396946E-2,5.8377612E-2,7.5452015E-2,-2.027328E-2,6.7767613E-3,-3.6361072E-2,1.4896191E-2,-2.9588103E-2,-5.8938045E-2,-5.3243738E-2,9.400778E-2,9.255654E-3,2.7583316E-2,5.6156855E-2,2.1733174E-2,4.6404272E-2,7.8668796E-2,-3.6255922E-2,1.7100234E-2,2.8503025E-2,-1.5221544E-2,6.3453073E-4,2.3893422E-2,2.8201059E-2,-7.1567395E-3,5.1619798E-2,-1.821042E-3,4.6652574E-2,3.175774E-2,5.2000877E-2,6.777134E-2,3.5111517E-2,5.7745393E-2],"split_indices":[1,39,65,50,4,49,4,4,0,10,0,0,50,3,42,3,0,35,5,8,0,4,4,5,4,4,15,15,0,0,0,0,4,5,2,0,5,0,0,0,61,47,50,27,5,5,4,42,44,2,42,44,3,3,0,0,0,0,0,0,0,0,0,0,0,0,0,0,0,0,0,0,0,0,0,0,0,0,0,0,0,0,0,0,0,0,0,0,0,0,0,0,0,0,0,0,0,0,0],"split_type":[0,0,0,0,0,0,0,0,0,0,0,0,0,0,0,0,0,0,0,0,0,0,0,0,0,0,0,0,0,0,0,0,0,0,0,0,0,0,0,0,0,0,0,0,0,0,0,0,0,0,0,0,0,0,0,0,0,0,0,0,0,0,0,0,0,0,0,0,0,0,0,0,0,0,0,0,0,0,0,0,0,0,0,0,0,0,0,0,0,0,0,0,0,0,0,0,0,0,0],"sum_hessian":[8.815609E4,2.1899256E4,6.6256836E4,1.5205752E4,6.693504E3,5.9446797E4,6.8100396E3,7.180624E3,8.0251284E3,5.935854E3,7.576498E2,5.562334E4,3.8234568E3,5.170593E3,1.639447E3,4.7991064E3,2.3815178E3,4.1626455E3,3.8624827E3,5.7467153E3,1.8913846E2,2.1684258E4,3.3939082E4,1.1586432E3,2.6648137E3,2.6988962E3,2.4716963E3,1.5535269E3,8.592016E1,4.749455E2,4.3241606E3,1.1983578E3,1.1831599E3,2.0919216E3,2.070724E3,9.828277E2,2.879655E3,5.5753745E3,1.7134102E2,1.5290209E4,6.394049E3,2.4162406E4,9.776676E3,3.76124E2,7.8251917E2,2.6025142E3,6.2299553E1,1.0923538E3,1.6065426E3,2.124287E3,3.474093E2,1.2509619E3,3.02565E2,4.490487E1,4.101529E1,1.5470229E2,3.2024323E2,4.060205E3,2.6395557E2,7.671559E2,4.312019E2,8.51549E2,3.3161093E2,5.2947174E2,1.5624498E3,7.7225244E2,1.2984716E3,2.1099893E3,7.696657E2,7.8299297E3,7.460279E3,5.964561E3,4.2948767E2,2.1964375E4,2.198031E3,9.759475E3,1.720111E1,3.221024E2,5.40216E1,3.2482224E2,4.576969E2,2.3998203E3,2.0269377E2,2.998135E1,3.2318207E1,1.0600934E3,3.226034E1,1.066659E3,5.3988354E2,2.0501987E3,7.4088264E1,3.116835E2,3.5725807E1,8.1521594E2,4.3574594E2,2.5274506E2,4.9819958E1,1.96075E1,2.5297369E1],"tree_param":{"num_deleted":"0","num_feature":"73","num_nodes":"99","size_leaf_vector":"1"}},{"base_weights":[-1.090831E-3,1.1105586E0,-3.6817774E-1,9.584543E-1,1.459423E0,-4.707326E-1,5.1764625E-1,7.373809E-1,1.1571225E0,1.4737756E0,6.718092E-2,-5.5858934E-1,7.97353E-1,4.288689E-1,7.9806054E-1,8.958163E-1,4.1779068E-1,1.053866E0,1.2683177E0,1.4794285E0,6.442525E-2,-2.8070256E-1,-7.37983E-1,5.39507E-1,9.093539E-1,3.507984E-1,6.459636E-1,8.436077E-1,-3.451017E-2,6.136874E-1,9.538306E-1,9.153821E-1,-8.547434E-2,9.286277E-1,1.1800176E0,1.0057E0,1.3050151E0,7.420733E-2,6.550319E-2,-1.348161E-1,-6.3221604E-1,-6.205983E-1,-1.031394E0,2.2851773E-1,6.8844396E-1,1.151685E0,7.7854645E-1,2.983549E-1,6.8491477E-1,5.812801E-2,6.269049E-1,7.81781E-1,1.0278697E0,9.562709E-1,-5.6965996E-2,5.3557146E-2,1.7496942E-2,3.437161E-2,5.3180333E-2,3.784251E-2,5.9757408E-2,-8.430911E-3,6.246164E-2,5.6814183E-2,4.423002E-2,5.4652512E-2,6.150149E-2,6.36028E-2,4.4575796E-2,7.281446E-2,6.268508E-2,1.7161606E-3,-2.7220983E-2,-3.495299E-2,1.4128345E-2,-4.187141E-2,-2.454067E-2,-5.5322863E-2,-3.9933644E-2,2.0851538E-2,6.956956E-3,6.2397685E-2,2.4689743E-2,3.877077E-2,6.251187E-2,3.4113374E-2,7.35748E-2,2.0385643E-2,6.3356766E-3,3.999752E-2,-2.3123613E-2,3.317822E-2,-4.5659464E-2,3.6069985E-2,5.1576555E-2,4.8551865E-2,6.383256E-2,3.338128E-2,5.5820573E-2],"categories":[],"categories_nodes":[],"categories_segments":[],"categories_sizes":[],"default_left":[0,0,0,0,0,0,0,0,0,0,0,0,0,0,0,0,0,0,0,0,0,0,0,0,0,0,0,0,0,0,0,0,0,0,0,0,0,0,0,0,0,0,0,0,0,0,0,0,0,0,0,0,0,0,0,0,0,0,0,0,0,0,0,0,0,0,0,0,0,0,0,0,0,0,0,0,0,0,0,0,0,0,0,0,0,0,0,0,0,0,0,0,0,0,0,0,0,0,0],"id":10,"left_children":[1,3,5,7,9,11,13,15,17,19,-1,21,23,25,27,29,31,33,35,37,-1,39,41,43,45,47,49,51,53,55,57,59,61,63,65,67,69,-1,-1,71,73,75,77,79,81,83,85,87,89,-1,91,93,95,97,-1,-1,-1,-1,-1,-1,-1,-1,-1,-1,-1,-1,-1,-1,-1,-1,-1,-1,-1,-1,-1,-1,-1,-1,-1,-1,-1,-1,-1,-1,-1,-1,-1,-1,-1,-1,-1,-1,-1,-1,-1,-1,-1,-1,-1],"loss_changes":[3.5618215E4,1.1467285E3,5.961461E3,6.610781E2,6.685547E0,6.5528057E3,1.6870593E2,3.611748E2,8.8333984E1,2.0166016E0,0E0,2.7413027E3,1.0893799E2,8.71817E1,6.213257E1,7.688501E1,5.947009E2,6.2890137E1,3.3919434E1,3.408203E-1,0E0,1.1064132E3,1.1496699E3,5.3291992E1,8.213867E1,6.628833E1,1.1817017E1,1.5872192E1,9.699487E1,9.815463E1,1.14157715E2,5.094861E1,1.31475E2,1.683728E1,5.9995117E0,1.2019897E1,2.2012207E1,0E0,0E0,1.056857E3,3.8742236E2,6.709678E2,1.648164E2,6.208044E0,8.3836365E1,3.219336E1,1.1319495E2,6.1760345E1,6.8796936E1,0E0,7.584625E1,1.5972534E1,2.7069092E0,4.8942947E-1,0E0,0E0,0E0,0E0,0E0,0E0,0E0,0E0,0E0,0E0,0E0,0E0,0E0,0E0,0E0,0E0,0E0,0E0,0E0,0E0,0E0,0E0,0E0,0E0,0E0,0E0,0E0,0E0,0E0,0E0,0E0,0E0,0E0,0E0,0E0,0E0,0E0,0E0,0E0,0E0,0E0,0E0,0E0,0E0,0E0],"parents":[2147483647,0,0,1,1,2,2,3,3,4,4,5,5,6,6,7,7,8,8,9,9,11,11,12,12,13,13,14,14,15,15,16,16,17,17,18,18,19,19,21,21,22,22,23,23,24,24,25,25,26,26,27,27,28,28,29,29,30,30,31,31,32,32,33,33,34,34,35,35,36,36,39,39,40,40,41,41,42,42,43,43,44,44,45,45,46,46,47,47,48,48,50,50,51,51,52,52,53,53],"right_children":[2,4,6,8,10,12,14,16,18,20,-1,22,24,26,28,30,32,34,36,38,-1,40,42,44,46,48,50,52,54,56,58,60,62,64,66,68,70,-1,-1,72,74,76,78,80,82,84,86,88,90,-1,92,94,96,98,-1,-1,-1,-1,-1,-1,-1,-1,-1,-1,-1,-1,-1,-1,-1,-1,-1,-1,-1,-1,-1,-1,-1,-1,-1,-1,-1,-1,-1,-1,-1,-1,-1,-1,-1,-1,-1,-1,-1,-1,-1,-1,-1,-1,-1],"split_conditions":[-1.3161044E0,3.5686145E0,3.6194627E0,2.7910964E0,1.8924749E0,4.9038677E0,1.3473849E0,8.02295E-1,-1.1964939E0,4.7639194E0,6.718092E-2,-6.4128146E-2,2.7910964E0,8.656764E-1,1.1063287E0,-9.445005E-1,8.417644E-1,6.674436E0,8.584142E-1,4.513504E0,6.442525E-2,8.02295E-1,8.02295E-1,-7.143598E-1,-4.227987E-1,3.1027296E0,-3.712927E-1,1.035007E0,-6.4128146E-2,8.417644E-1,-1.1964939E0,-1.1964939E0,1.2851827E1,-1.005921E0,-4.318169E-1,-7.143598E-1,-7.143598E-1,7.420733E-2,6.550319E-2,3.5375266E0,2.1735277E0,1.1063287E0,1.8924749E0,-1.2974821E0,1.6032359E-1,-8.3297473E-1,1.6181293E0,2.572051E-1,1.1063287E0,5.812801E-2,1.1063287E0,3.1027296E0,1.3182206E0,1.8924749E0,-5.6965996E-2,5.3557146E-2,1.7496942E-2,3.437161E-2,5.3180333E-2,3.784251E-2,5.9757408E-2,-8.430911E-3,6.246164E-2,5.6814183E-2,4.423002E-2,5.4652512E-2,6.150149E-2,6.36028E-2,4.4575796E-2,7.281446E-2,6.268508E-2,1.7161606E-3,-2.7220983E-2,-3.495299E-2,1.4128345E-2,-4.187141E-2,-2.454067E-2,-5.5322863E-2,-3.9933644E-2,2.0851538E-2,6.956956E-3,6.2397685E-2,2.4689743E-2,3.877077E-2,6.251187E-2,3.4113374E-2,7.35748E-2,2.0385643E-2,6.3356766E-3,3.999752E-2,-2.3123613E-2,3.317822E-2,-4.5659464E-2,3.6069985E-2,5.1576555E-2,4.8551865E-2,6.383256E-2,3.338128E-2,5.5820573E-2],"split_indices":[1,39,65,50,4,49,4,4,0,10,0,0,50,3,42,3,0,35,2,8,0,4,4,5,5,15,1,5,0,0,0,0,54,5,2,5,5,0,0,37,61,42,4,5,5,4,5,4,42,0,42,15,3,4,0,0,0,0,0,0,0,0,0,0,0,0,0,0,0,0,0,0,0,0,0,0,0,0,0,0,0,0,0,0,0,0,0,0,0,0,0,0,0,0,0,0,0,0,0],"split_type":[0,0,0,0,0,0,0,0,0,0,0,0,0,0,0,0,0,0,0,0,0,0,0,0,0,0,0,0,0,0,0,0,0,0,0,0,0,0,0,0,0,0,0,0,0,0,0,0,0,0,0,0,0,0,0,0,0,0,0,0,0,0,0,0,0,0,0,0,0,0,0,0,0,0,0,0,0,0,0,0,0,0,0,0,0,0,0,0,0,0,0,0,0,0,0,0,0,0,0],"sum_hessian":[8.7280336E4,2.1665717E4,6.561462E4,1.5092982E4,6.5727344E3,5.8807344E4,6.807277E3,7.148369E3,7.9446133E3,5.8263145E3,7.464196E2,5.499811E4,3.809234E3,5.174484E3,1.6327932E3,4.776514E3,2.3718547E3,4.1306885E3,3.8139246E3,5.6397275E3,1.8658708E2,2.1578295E4,3.3419812E4,1.1573455E3,2.6518884E3,3.8100322E3,1.3644515E3,1.5481904E3,8.460282E1,8.1891785E2,3.9575964E3,1.1919265E3,1.1799282E3,2.081637E3,2.0490515E3,4.7490387E2,3.3390208E3,5.4711978E3,1.6852986E2,1.5251577E4,6.3267173E3,2.387481E4,9.545003E3,3.7663965E2,7.807058E2,9.239063E2,1.727982E3,3.2966667E3,5.133655E2,4.4091114E1,1.3203604E3,1.1674845E3,3.807059E2,4.4697227E1,3.9905594E1,2.971054E2,5.2181244E2,1.1594181E3,2.7981785E3,7.6576636E2,4.2616016E2,1.1124517E3,6.74765E1,3.5506696E2,1.7265701E3,7.655439E2,1.2835076E3,1.3615045E2,3.3875342E2,8.3137933E2,2.5076414E3,1.0795383E4,4.4561943E3,5.8964414E3,4.3027582E2,8.935205E3,1.4939606E4,7.2111416E3,2.3338613E3,1.1842107E2,2.5821857E2,1.98575E2,5.821308E2,1.9565457E2,7.282517E2,1.520795E3,2.07187E2,2.0116498E3,1.2850168E3,4.672158E2,4.614973E1,1.2908373E3,2.9523142E1,9.4676544E2,2.207191E2,3.1821915E2,6.248675E1,1.9861076E1,2.483615E1],"tree_param":{"num_deleted":"0","num_feature":"73","num_nodes":"99","size_leaf_vector":"1"}},{"base_weights":[-1.0559382E-3,1.0681448E0,-3.5340554E-1,9.1848874E-1,1.4154766E0,-4.5230636E-1,4.9227613E-1,7.042174E-1,1.1122752E0,1.4300513E0,1.2984544E0,-5.3696245E-1,7.611579E-1,4.0727904E-1,7.621514E-1,8.5607445E-1,3.9852783E-1,1.0103511E0,1.2226348E0,1.4357822E0,6.218369E-2,6.985082E-2,1.2449496E0,-2.680697E-1,-7.1240234E-1,5.1352954E-1,8.69188E-1,6.669206E-2,3.8995096E-1,8.0511963E-1,-3.2729365E-2,8.8749665E-1,3.3964488E-1,8.7537515E-1,-8.121404E-2,8.875638E-1,1.1347945E0,1.1846943E0,1.4830638E0,7.2023116E-2,6.34145E-2,1.1417825E0,6.894035E-2,-4.242625E-1,4.6429776E-2,-5.9687936E-1,-1.0048018E0,2.1698292E-1,6.5610266E-1,1.1059048E0,7.4230087E-1,4.2229444E-1,-1.054376E0,6.979915E-1,9.0322644E-1,9.175312E-1,-5.5761933E-2,4.885012E-2,3.286382E-2,1.2555293E-2,3.077401E-2,3.604574E-2,5.7545315E-2,-1.4412782E-2,2.2265067E-2,4.191403E-2,5.379997E-2,6.0588386E-2,5.377097E-2,6.7424886E-2,5.391113E-2,5.291593E-2,7.5377315E-2,5.847728E-2,2.5903437E-2,-2.9357513E-2,-9.680732E-3,5.321284E-2,-8.321623E-3,-2.7231628E-2,-5.6515396E-2,-5.402385E-2,-3.862004E-2,2.9680306E-2,8.553152E-3,5.1801976E-2,1.9377662E-2,3.7118588E-2,6.0075082E-2,3.2496184E-2,7.056653E-2,1.8156234E-2,4.0297013E-2,-3.0486027E-3,-6.943759E-2,4.3302204E-2,2.5069121E-2,4.601374E-2,2.577967E-2,3.161409E-2,5.361536E-2],"categories":[],"categories_nodes":[],"categories_segments":[],"categories_sizes":[],"default_left":[0,0,0,0,0,0,0,0,0,0,0,0,0,0,0,0,0,0,0,0,0,0,0,0,0,0,0,0,0,0,0,0,0,0,0,0,0,0,0,0,0,0,0,0,0,0,0,0,0,0,0,0,0,0,0,0,0,0,0,0,0,0,0,0,0,0,0,0,0,0,0,0,0,0,0,0,0,0,0,0,0,0,0,0,0,0,0,0,0,0,0,0,0,0,0,0,0,0,0,0,0],"id":11,"left_children":[1,3,5,7,9,11,13,15,17,19,21,23,25,27,29,31,33,35,37,39,-1,-1,41,43,45,47,49,-1,51,53,55,57,59,61,63,65,67,69,71,-1,-1,73,-1,75,77,79,81,83,85,87,89,91,93,95,97,99,-1,-1,-1,-1,-1,-1,-1,-1,-1,-1,-1,-1,-1,-1,-1,-1,-1,-1,-1,-1,-1,-1,-1,-1,-1,-1,-1,-1,-1,-1,-1,-1,-1,-1,-1,-1,-1,-1,-1,-1,-1,-1,-1,-1,-1],"loss_changes":[3.2543736E4,1.1101387E3,5.4346895E3,6.1983984E2,7.0039062E0,5.9765615E3,1.5533032E2,3.2947095E2,8.568262E1,2.2597656E0,1.3952637E-1,2.5648164E3,1.004729E2,8.193445E1,5.5700134E1,7.637842E1,5.413239E2,6.0378906E1,3.339502E1,4.0625E-1,0E0,0E0,3.4511719E0,1.0549515E3,1.1101855E3,4.8574707E1,7.7428955E1,0E0,2.3844446E2,1.4803955E1,8.9752205E1,9.0816895E1,6.34346E0,4.8650085E1,1.2896219E2,1.724292E1,6.428711E0,5.4302246E1,1.4415283E0,0E0,0E0,3.6802063E0,0E0,5.387742E2,1.5446785E3,6.56126E2,1.6198438E2,6.2766953E0,7.870032E1,2.987085E1,1.0452045E2,1.12269104E2,3.686068E1,2.3684296E1,4.1844482E0,5.239525E-1,0E0,0E0,0E0,0E0,0E0,0E0,0E0,0E0,0E0,0E0,0E0,0E0,0E0,0E0,0E0,0E0,0E0,0E0,0E0,0E0,0E0,0E0,0E0,0E0,0E0,0E0,0E0,0E0,0E0,0E0,0E0,0E0,0E0,0E0,0E0,0E0,0E0,0E0,0E0,0E0,0E0,0E0,0E0,0E0,0E0],"parents":[2147483647,0,0,1,1,2,2,3,3,4,4,5,5,6,6,7,7,8,8,9,9,10,10,11,11,12,12,13,13,14,14,15,15,16,16,17,17,18,18,19,19,22,22,23,23,24,24,25,25,26,26,28,28,29,29,30,30,31,31,32,32,33,33,34,34,35,35,36,36,37,37,38,38,41,41,43,43,44,44,45,45,46,46,47,47,48,48,49,49,50,50,51,51,52,52,53,53,54,54,55,55],"right_children":[2,4,6,8,10,12,14,16,18,20,22,24,26,28,30,32,34,36,38,40,-1,-1,42,44,46,48,50,-1,52,54,56,58,60,62,64,66,68,70,72,-1,-1,74,-1,76,78,80,82,84,86,88,90,92,94,96,98,100,-1,-1,-1,-1,-1,-1,-1,-1,-1,-1,-1,-1,-1,-1,-1,-1,-1,-1,-1,-1,-1,-1,-1,-1,-1,-1,-1,-1,-1,-1,-1,-1,-1,-1,-1,-1,-1,-1,-1,-1,-1,-1,-1,-1,-1],"split_conditions":[-1.3161044E0,3.5686145E0,3.6194627E0,2.7910964E0,1.8924749E0,4.9038677E0,1.3473849E0,8.02295E-1,-1.1964939E0,4.7639194E0,-4.9195626E-1,-6.4128146E-2,2.7910964E0,-6.4128146E-2,1.1063287E0,1.1814741E0,8.417644E-1,6.674436E0,1.3265681E0,4.513504E0,6.218369E-2,6.985082E-2,6.394043E-1,1.1063287E0,8.02295E-1,-7.143598E-1,-4.227987E-1,6.669206E-2,1.1063287E0,1.6032359E-1,-6.4128146E-2,6.8265977E0,2.572051E-1,-1.1964939E0,1.8924749E0,1.035007E0,-1.3123755E-1,-4.227987E-1,-9.700207E-1,7.2023116E-2,6.34145E-2,3.6157098E0,6.894035E-2,-1.422967E0,-1.7626767E0,5.080652E0,1.8924749E0,-9.445005E-1,7.434459E-1,-8.3297473E-1,1.6181293E0,3.1027296E0,1.6032359E-1,-7.143598E-1,3.586823E0,6.394043E-1,-5.5761933E-2,4.885012E-2,3.286382E-2,1.2555293E-2,3.077401E-2,3.604574E-2,5.7545315E-2,-1.4412782E-2,2.2265067E-2,4.191403E-2,5.379997E-2,6.0588386E-2,5.377097E-2,6.7424886E-2,5.391113E-2,5.291593E-2,7.5377315E-2,5.847728E-2,2.5903437E-2,-2.9357513E-2,-9.680732E-3,5.321284E-2,-8.321623E-3,-2.7231628E-2,-5.6515396E-2,-5.402385E-2,-3.862004E-2,2.9680306E-2,8.553152E-3,5.1801976E-2,1.9377662E-2,3.7118588E-2,6.0075082E-2,3.2496184E-2,7.056653E-2,1.8156234E-2,4.0297013E-2,-3.0486027E-3,-6.943759E-2,4.3302204E-2,2.5069121E-2,4.601374E-2,2.577967E-2,3.161409E-2,5.361536E-2],"split_indices":[1,39,65,50,4,49,4,4,0,10,3,0,50,0,42,0,0,35,5,8,0,0,3,42,4,5,5,0,42,5,0,68,4,0,4,5,5,5,0,0,0,11,0,0,0,47,4,3,5,4,5,15,5,5,33,3,0,0,0,0,0,0,0,0,0,0,0,0,0,0,0,0,0,0,0,0,0,0,0,0,0,0,0,0,0,0,0,0,0,0,0,0,0,0,0,0,0,0,0,0,0],"split_type":[0,0,0,0,0,0,0,0,0,0,0,0,0,0,0,0,0,0,0,0,0,0,0,0,0,0,0,0,0,0,0,0,0,0,0,0,0,0,0,0,0,0,0,0,0,0,0,0,0,0,0,0,0,0,0,0,0,0,0,0,0,0,0,0,0,0,0,0,0,0,0,0,0,0,0,0,0,0,0,0,0,0,0,0,0,0,0,0,0,0,0,0,0,0,0,0,0,0,0,0,0],"sum_hessian":[8.638039E4,2.1409416E4,6.4970973E4,1.4967773E4,6.441642E3,5.8169242E4,6.8017305E3,7.1128354E3,7.854938E3,5.7074976E3,7.341445E2,5.437689E4,3.7923516E3,5.1767153E3,1.6250149E3,4.7495024E3,2.3633333E3,4.0945596E3,3.7603784E3,5.523707E3,1.837905E2,2.399819E2,4.9416254E2,2.1472344E4,3.2904547E4,1.1556917E3,2.63666E3,9.213948E1,5.084576E3,1.5417726E3,8.3242355E1,4.475556E3,2.7394644E2,1.1845197E3,1.1788136E3,2.069585E3,2.0249746E3,3.2922324E3,4.6814587E2,5.358188E3,1.6551915E2,2.902594E2,2.0390315E2,1.4346787E4,7.1255557E3,2.359063E4,9.313915E3,3.770946E2,7.7859705E2,9.1445715E2,1.7222028E3,4.9746606E3,1.0991542E2,7.4524603E2,7.9652655E2,4.444211E1,3.8800247E1,3.2176619E3,1.2578942E3,2.1054715E2,6.339929E1,7.638871E2,4.2063254E2,8.4688727E2,3.319264E2,1.649583E3,4.2000195E2,8.641706E2,1.1608041E3,1.2873745E3,2.004858E3,3.055689E1,4.3758896E2,2.7606067E2,1.4198735E1,8.406463E3,5.9403247E3,1.2311466E3,5.894409E3,2.1490016E4,2.1006152E3,7.0202295E3,2.293685E3,3.8151775E1,3.389428E2,3.199094E2,4.5868765E2,1.9426985E2,7.201873E2,1.5168534E3,2.0534933E2,4.3135366E3,6.6112396E2,2.835091E1,8.156451E1,3.978573E2,3.4738876E2,7.6009106E2,3.643548E1,1.9436804E1,2.5005306E1],"tree_param":{"num_deleted":"0","num_feature":"73","num_nodes":"101","size_leaf_vector":"1"}},{"base_weights":[-1.0150073E-3,1.0285244E0,-3.3923793E-1,8.809814E-1,1.3753085E0,-4.346008E-1,4.6827865E-1,6.7303336E-1,1.0703061E0,1.390125E0,1.2569668E0,-5.1615006E-1,7.271179E-1,3.8686678E-1,7.2817844E-1,8.1849825E-1,3.8059822E-1,9.6946484E-1,1.1801356E0,1.3959565E0,6.010101E-2,6.771474E-2,1.2042464E0,-2.5598508E-1,-6.877232E-1,4.890484E-1,8.31459E-1,2.667506E-1,5.18158E-1,7.687358E-1,-3.1068094E-2,6.0538197E-1,8.9283127E-1,8.3773816E-1,-7.736936E-2,8.488453E-1,1.0925212E0,9.166043E-1,1.2173104E0,7.003131E-2,6.1473638E-2,1.2361014E0,8.338055E-1,-1.1554216E-1,-5.972983E-1,-5.740266E-1,-9.792554E-1,2.0609173E-1,6.2571675E-1,8.5845065E-1,-2.5532198E-1,4.732346E-1,1.26067E-1,4.6914315E-1,8.147013E-1,7.1745074E-1,9.764745E-1,8.8085866E-1,-5.4615784E-2,4.8059326E-2,1.8657146E-2,3.0828038E-2,5.0475627E-2,3.435348E-2,5.5478282E-2,-7.852097E-3,5.9111048E-2,3.516936E-2,4.5574095E-2,5.0228793E-2,5.717354E-2,5.91481E-2,4.0221572E-2,5.8611292E-2,6.9455765E-2,5.4344613E-2,6.602812E-2,5.3822786E-2,3.162786E-2,-1.7995229E-2,6.80666E-3,-3.3808447E-2,7.100211E-3,-2.614819E-2,-5.520776E-2,-5.2781582E-2,-3.7351158E-2,7.6707876E-3,2.5087452E-2,6.5840684E-2,2.412436E-2,5.439198E-2,3.680415E-2,-3.8355332E-2,1.1966909E-2,2.4822485E-2,-1.419112E-2,-1.0578013E-3,2.0781633E-2,2.4634361E-2,-8.814906E-3,4.545011E-2,-1.0355425E-3,4.092304E-2,2.631946E-2,4.583558E-2,6.154899E-2,3.0018259E-2,5.2024007E-2],"categories":[],"categories_nodes":[],"categories_segments":[],"categories_sizes":[],"default_left":[0,0,0,0,0,0,0,0,0,0,0,0,0,0,0,0,0,0,0,0,0,0,0,0,0,0,0,0,0,0,0,0,0,0,0,0,0,0,0,0,0,0,0,0,0,0,0,0,0,0,0,0,0,0,0,0,0,0,0,0,0,0,0,0,0,0,0,0,0,0,0,0,0,0,0,0,0,0,0,0,0,0,0,0,0,0,0,0,0,0,0,0,0,0,0,0,0,0,0,0,0,0,0,0,0,0,0,0,0],"id":12,"left_children":[1,3,5,7,9,11,13,15,17,19,21,23,25,27,29,31,33,35,37,39,-1,-1,41,43,45,47,49,51,53,55,57,59,61,63,65,67,69,71,73,-1,-1,75,77,79,81,83,85,87,89,91,93,95,97,99,101,103,105,107,-1,-1,-1,-1,-1,-1,-1,-1,-1,-1,-1,-1,-1,-1,-1,-1,-1,-1,-1,-1,-1,-1,-1,-1,-1,-1,-1,-1,-1,-1,-1,-1,-1,-1,-1,-1,-1,-1,-1,-1,-1,-1,-1,-1,-1,-1,-1,-1,-1,-1,-1],"loss_changes":[2.9761502E4,1.0787324E3,4.954604E3,5.823369E2,7.2958984E0,5.451954E3,1.4311902E2,3.0018823E2,8.344531E1,2.508789E0,1.928711E-1,2.399587E3,9.282666E1,8.132605E1,4.995819E1,7.357764E1,4.9301517E2,5.817456E1,3.3851074E1,4.9316406E-1,0E0,0E0,3.4874268E0,1.0241931E3,1.0726191E3,4.4342743E1,7.739795E1,7.8524734E1,3.5039185E1,1.4800049E1,8.3110306E1,1.0059805E2,1.113064E2,4.6554443E1,1.1844926E2,1.7309937E1,6.4538574E0,1.1834656E1,2.1587402E1,0E0,0E0,2.4934692E0,6.6555023E-1,9.314335E2,3.6347412E2,6.297788E2,1.5942188E2,5.6916676E0,7.55531E1,7.003308E1,1.6870869E1,1.9581345E1,6.888239E1,3.2519592E1,2.7513916E1,2.2939941E1,2.0655518E0,6.5343857E-1,0E0,0E0,0E0,0E0,0E0,0E0,0E0,0E0,0E0,0E0,0E0,0E0,0E0,0E0,0E0,0E0,0E0,0E0,0E0,0E0,0E0,0E0,0E0,0E0,0E0,0E0,0E0,0E0,0E0,0E0,0E0,0E0,0E0,0E0,0E0,0E0,0E0,0E0,0E0,0E0,0E0,0E0,0E0,0E0,0E0,0E0,0E0,0E0,0E0,0E0,0E0],"parents":[2147483647,0,0,1,1,2,2,3,3,4,4,5,5,6,6,7,7,8,8,9,9,10,10,11,11,12,12,13,13,14,14,15,15,16,16,17,17,18,18,19,19,22,22,23,23,24,24,25,25,26,26,27,27,28,28,29,29,30,30,31,31,32,32,33,33,34,34,35,35,36,36,37,37,38,38,41,41,42,42,43,43,44,44,45,45,46,46,47,47,48,48,49,49,50,50,51,51,52,52,53,53,54,54,55,55,56,56,57,57],"right_children":[2,4,6,8,10,12,14,16,18,20,22,24,26,28,30,32,34,36,38,40,-1,-1,42,44,46,48,50,52,54,56,58,60,62,64,66,68,70,72,74,-1,-1,76,78,80,82,84,86,88,90,92,94,96,98,100,102,104,106,108,-1,-1,-1,-1,-1,-1,-1,-1,-1,-1,-1,-1,-1,-1,-1,-1,-1,-1,-1,-1,-1,-1,-1,-1,-1,-1,-1,-1,-1,-1,-1,-1,-1,-1,-1,-1,-1,-1,-1,-1,-1,-1,-1,-1,-1,-1,-1,-1,-1,-1,-1],"split_conditions":[-1.3161044E0,3.5686145E0,3.6194627E0,2.7910964E0,1.8924749E0,4.9038677E0,1.3473849E0,8.02295E-1,-1.1964939E0,4.7639194E0,-4.9195626E-1,-6.4128146E-2,2.7910964E0,1.8686007E-1,1.1063287E0,-7.182284E-1,8.417644E-1,6.674436E0,8.584142E-1,4.513504E0,6.010101E-2,6.771474E-2,3.586823E0,8.02295E-1,8.02295E-1,-7.143598E-1,1.3473849E0,-2.878848E-1,3.1027296E0,3.1027296E0,-6.4128146E-2,8.417644E-1,-1.1964939E0,-1.1964939E0,1.2851827E1,-2.878848E-1,-4.318169E-1,-7.143598E-1,1.035007E0,7.003131E-2,6.1473638E-2,1.8686007E-1,-4.318169E-1,-1.1964939E0,1.5035297E0,5.080652E0,1.8924749E0,3.175779E0,-1.3123755E-1,-4.227987E-1,1.8924749E0,1.1063287E0,6.439483E0,1.5035297E0,1.1063287E0,6.439483E0,1.5444927E0,1.8924749E0,-5.4615784E-2,4.8059326E-2,1.8657146E-2,3.0828038E-2,5.0475627E-2,3.435348E-2,5.5478282E-2,-7.852097E-3,5.9111048E-2,3.516936E-2,4.5574095E-2,5.0228793E-2,5.717354E-2,5.91481E-2,4.0221572E-2,5.8611292E-2,6.9455765E-2,5.4344613E-2,6.602812E-2,5.3822786E-2,3.162786E-2,-1.7995229E-2,6.80666E-3,-3.3808447E-2,7.100211E-3,-2.614819E-2,-5.520776E-2,-5.2781582E-2,-3.7351158E-2,7.6707876E-3,2.5087452E-2,6.5840684E-2,2.412436E-2,5.439198E-2,3.680415E-2,-3.8355332E-2,1.1966909E-2,2.4822485E-2,-1.419112E-2,-1.0578013E-3,2.0781633E-2,2.4634361E-2,-8.814906E-3,4.545011E-2,-1.0355425E-3,4.092304E-2,2.631946E-2,4.583558E-2,6.154899E-2,3.0018259E-2,5.2024007E-2],"split_indices":[1,39,65,50,4,49,4,4,0,10,3,0,50,3,42,3,0,35,2,8,0,0,33,4,4,5,4,4,15,15,0,0,0,0,54,4,2,5,5,0,0,3,2,0,2,47,4,27,5,5,4,42,44,2,42,44,3,4,0,0,0,0,0,0,0,0,0,0,0,0,0,0,0,0,0,0,0,0,0,0,0,0,0,0,0,0,0,0,0,0,0,0,0,0,0,0,0,0,0,0,0,0,0,0,0,0,0,0,0],"split_type":[0,0,0,0,0,0,0,0,0,0,0,0,0,0,0,0,0,0,0,0,0,0,0,0,0,0,0,0,0,0,0,0,0,0,0,0,0,0,0,0,0,0,0,0,0,0,0,0,0,0,0,0,0,0,0,0,0,0,0,0,0,0,0,0,0,0,0,0,0,0,0,0,0,0,0,0,0,0,0,0,0,0,0,0,0,0,0,0,0,0,0,0,0,0,0,0,0,0,0,0,0,0,0,0,0,0,0,0,0],"sum_hessian":[8.546524E4,2.1132928E4,6.4332312E4,1.4830504E4,6.3024243E3,5.7538418E4,6.7938965E3,7.0722334E3,7.758271E3,5.5813037E3,7.2112024E2,5.3765438E4,3.7729795E3,5.177455E3,1.6164415E3,4.720295E3,2.3519385E3,4.0553584E3,3.7029124E3,5.400507E3,1.80797E2,2.3535504E2,4.857652E2,2.1368648E4,3.239679E4,1.1534796E3,2.6195E3,2.707361E3,2.4700938E3,1.5345746E3,8.1867004E1,1.2257224E3,3.4945725E3,1.176312E3,1.1756263E3,2.0563445E3,1.9990138E3,4.6444925E2,3.2384631E3,5.2381553E3,1.6235155E2,4.4274863E2,4.3016575E1,1.5141304E4,6.227345E3,2.3311613E4,9.085177E3,3.7755057E2,7.75929E2,2.5565176E3,6.298234E1,1.0949071E3,1.6124541E3,2.1244502E3,3.456437E2,1.2382682E3,2.9630627E2,4.4163326E1,3.7703682E1,4.814315E2,7.442909E2,1.0416484E3,2.452924E3,7.6159705E2,4.1471497E2,1.1074097E3,6.821669E1,6.268032E2,1.4295414E3,7.491986E2,1.2498153E3,1.3171204E2,3.327372E2,2.5781426E3,6.6032056E2,1.7048691E2,2.7226172E2,1.5333686E1,2.768289E1,7.6820293E3,7.4592744E3,5.6273154E3,6.000297E2,2.126728E4,2.0443341E3,6.831063E3,2.2541135E3,3.2332175E2,5.422881E1,1.302713E2,6.4565765E2,8.835774E2,1.6729403E3,3.0513308E1,3.2469032E1,1.063127E3,3.1780096E1,1.069964E3,5.424902E2,2.0502888E3,7.416116E1,3.1053427E2,3.5109436E1,8.053869E2,4.3288135E2,2.477309E2,4.8575394E1,1.969801E1,2.4465315E1],"tree_param":{"num_deleted":"0","num_feature":"73","num_nodes":"109","size_leaf_vector":"1"}},{"base_weights":[-9.6375425E-4,9.9126947E-1,-3.2561162E-1,8.4557056E-1,1.3383826E0,-4.1754138E-1,4.4565222E-1,6.434698E-1,1.0309197E0,1.3534787E0,1.218476E0,-4.9605876E-1,6.9500214E-1,3.6760798E-1,6.96259E-1,7.831965E-1,3.6331248E-1,9.309883E-1,1.1404358E0,1.3594309E0,5.8155995E-2,1.232433E0,4.6300326E-2,-2.4435765E-1,-6.6389126E-1,4.657766E-1,7.9602706E-1,6.3455045E-2,3.5090742E-1,7.345746E-1,-2.9500157E-2,8.1414646E-1,2.8041634E-1,8.0221826E-1,-7.3508225E-2,8.123383E-1,1.0528786E0,6.550437E-2,1.08245E0,6.820569E-2,5.966109E-2,6.263813E-2,1.0090204E0,-3.9451152E-1,5.486245E-2,-5.520027E-1,-9.5463806E-1,1.957769E-1,5.9674716E-1,8.219288E-1,-2.4471222E-1,3.811568E-1,-1.0206343E0,6.7522806E-1,9.128348E-1,8.4639674E-1,-5.3521074E-2,2.565583E-2,4.3942966E-2,4.1777436E-2,1.1778201E-2,3.2756045E-2,5.3537715E-2,-1.3593261E-2,2.1391561E-2,5.1253755E-2,3.8389575E-2,5.7256717E-2,5.012343E-2,4.9501833E-2,6.684625E-2,6.413582E-2,3.6432017E-2,-2.742042E-2,-8.978712E-3,1.4418955E-2,-4.0958535E-2,-3.8321223E-2,-2.1302417E-2,-4.803307E-2,9.90089E-2,1.8791458E-2,5.529502E-3,5.6182247E-2,2.097408E-2,5.5081684E-2,3.6223114E-2,-3.6971234E-2,1.1400943E-2,1.6308984E-2,3.692039E-2,-3.0230386E-3,-6.750568E-2,3.773311E-2,2.5144095E-2,4.2860743E-2,5.8004033E-2,2.8480629E-2,4.9984977E-2],"categories":[],"categories_nodes":[],"categories_segments":[],"categories_sizes":[],"default_left":[0,0,0,0,0,0,0,0,0,0,0,0,0,0,0,0,0,0,0,0,0,0,0,0,0,0,0,0,0,0,0,0,0,0,0,0,0,0,0,0,0,0,0,0,0,0,0,0,0,0,0,0,0,0,0,0,0,0,0,0,0,0,0,0,0,0,0,0,0,0,0,0,0,0,0,0,0,0,0,0,0,0,0,0,0,0,0,0,0,0,0,0,0,0,0,0,0,0,0],"id":13,"left_children":[1,3,5,7,9,11,13,15,17,19,21,23,25,27,29,31,33,35,37,39,-1,41,-1,43,45,47,49,-1,51,53,55,57,59,61,63,65,67,-1,69,-1,-1,-1,71,73,75,77,79,81,83,85,87,89,91,93,95,97,-1,-1,-1,-1,-1,-1,-1,-1,-1,-1,-1,-1,-1,-1,-1,-1,-1,-1,-1,-1,-1,-1,-1,-1,-1,-1,-1,-1,-1,-1,-1,-1,-1,-1,-1,-1,-1,-1,-1,-1,-1,-1,-1],"loss_changes":[2.7236018E4,1.0516875E3,4.517319E3,5.4867676E2,7.5927734E0,4.9731445E3,1.3209729E2,2.7457446E2,8.147412E1,2.7617188E0,3.9782715E-1,2.2457617E3,8.6048096E1,7.691614E1,4.4851868E1,7.241138E1,4.495768E2,5.6174072E1,3.2773926E1,5.9277344E-1,0E0,2.9229736E-1,0E0,9.5592554E2,1.0365225E3,4.0468674E1,7.0601685E1,0E0,2.1178412E2,1.47771E1,7.702438E1,8.4995605E1,6.351124E0,4.461914E1,1.17210526E2,1.7616089E1,6.666992E0,0E0,6.1270996E1,0E0,0E0,0E0,3.043335E0,4.6832812E2,1.4516272E3,6.2147266E2,1.6035303E2,5.69547E0,7.132034E1,6.74491E1,1.5503765E1,9.7206604E1,3.4575737E1,1.4923645E1,2.9749756E0,6.4964294E-1,0E0,0E0,0E0,0E0,0E0,0E0,0E0,0E0,0E0,0E0,0E0,0E0,0E0,0E0,0E0,0E0,0E0,0E0,0E0,0E0,0E0,0E0,0E0,0E0,0E0,0E0,0E0,0E0,0E0,0E0,0E0,0E0,0E0,0E0,0E0,0E0,0E0,0E0,0E0,0E0,0E0,0E0,0E0],"parents":[2147483647,0,0,1,1,2,2,3,3,4,4,5,5,6,6,7,7,8,8,9,9,10,10,11,11,12,12,13,13,14,14,15,15,16,16,17,17,18,18,19,19,21,21,23,23,24,24,25,25,26,26,28,28,29,29,30,30,31,31,32,32,33,33,34,34,35,35,36,36,38,38,42,42,43,43,44,44,45,45,46,46,47,47,48,48,49,49,50,50,51,51,52,52,53,53,54,54,55,55],"right_children":[2,4,6,8,10,12,14,16,18,20,22,24,26,28,30,32,34,36,38,40,-1,42,-1,44,46,48,50,-1,52,54,56,58,60,62,64,66,68,-1,70,-1,-1,-1,72,74,76,78,80,82,84,86,88,90,92,94,96,98,-1,-1,-1,-1,-1,-1,-1,-1,-1,-1,-1,-1,-1,-1,-1,-1,-1,-1,-1,-1,-1,-1,-1,-1,-1,-1,-1,-1,-1,-1,-1,-1,-1,-1,-1,-1,-1,-1,-1,-1,-1,-1,-1],"split_conditions":[-1.3161044E0,3.5686145E0,3.6194627E0,2.7910964E0,1.8924749E0,4.9038677E0,1.3473849E0,8.02295E-1,-1.1964939E0,4.7639194E0,3.6157098E0,-6.4128146E-2,2.7910964E0,-6.4128146E-2,1.1063287E0,1.1814741E0,8.417644E-1,6.674436E0,-7.143598E-1,4.513504E0,5.8155995E-2,3.586823E0,4.6300326E-2,1.1063287E0,8.02295E-1,-7.143598E-1,1.3473849E0,6.3455045E-2,1.1063287E0,1.035007E0,-6.4128146E-2,-9.445005E-1,-1.2974821E0,-1.1964939E0,1.8924749E0,-1.005921E0,-4.227987E-1,6.550437E-2,1.035007E0,6.820569E-2,5.966109E-2,6.263813E-2,-2.6568416E-1,-1.422967E0,4.5600204E0,1.1063287E0,2.7910964E0,-1.2974821E0,1.6032359E-1,-7.143598E-1,1.8924749E0,3.1027296E0,1.6032359E-1,6.439483E0,1.3182206E0,6.394043E-1,-5.3521074E-2,2.565583E-2,4.3942966E-2,4.1777436E-2,1.1778201E-2,3.2756045E-2,5.3537715E-2,-1.3593261E-2,2.1391561E-2,5.1253755E-2,3.8389575E-2,5.7256717E-2,5.012343E-2,4.9501833E-2,6.684625E-2,6.413582E-2,3.6432017E-2,-2.742042E-2,-8.978712E-3,1.4418955E-2,-4.0958535E-2,-3.8321223E-2,-2.1302417E-2,-4.803307E-2,9.90089E-2,1.8791458E-2,5.529502E-3,5.6182247E-2,2.097408E-2,5.5081684E-2,3.6223114E-2,-3.6971234E-2,1.1400943E-2,1.6308984E-2,3.692039E-2,-3.0230386E-3,-6.750568E-2,3.773311E-2,2.5144095E-2,4.2860743E-2,5.8004033E-2,2.8480629E-2,4.9984977E-2],"split_indices":[1,39,65,50,4,49,4,4,0,10,11,0,50,0,42,0,0,35,5,8,0,33,0,42,4,5,4,0,42,5,0,3,5,0,4,5,5,0,5,0,0,0,3,0,51,42,50,5,5,5,4,15,5,44,3,3,0,0,0,0,0,0,0,0,0,0,0,0,0,0,0,0,0,0,0,0,0,0,0,0,0,0,0,0,0,0,0,0,0,0,0,0,0,0,0,0,0,0,0],"split_type":[0,0,0,0,0,0,0,0,0,0,0,0,0,0,0,0,0,0,0,0,0,0,0,0,0,0,0,0,0,0,0,0,0,0,0,0,0,0,0,0,0,0,0,0,0,0,0,0,0,0,0,0,0,0,0,0,0,0,0,0,0,0,0,0,0,0,0,0,0,0,0,0,0,0,0,0,0,0,0,0,0,0,0,0,0,0,0,0,0,0,0,0,0,0,0,0,0,0,0],"sum_hessian":[8.454692E4,2.0842082E4,6.3704836E4,1.4685204E4,6.156878E3,5.6921234E4,6.783603E3,7.0296772E3,7.6555264E3,5.4493975E3,7.0748065E2,5.316998E4,3.7512556E3,5.1767783E3,1.6068246E3,4.687746E3,2.3419314E3,4.0133408E3,3.6421858E3,5.2717485E3,1.7764873E2,6.6879565E2,3.868503E1,2.1272607E4,3.1897371E4,1.1512592E3,2.5999966E3,9.1321014E1,5.0854575E3,1.526356E3,8.046868E1,4.4145586E3,2.731874E2,1.1674573E3,1.174474E3,2.0418853E3,1.9714556E3,9.163287E2,2.725857E3,5.1126846E3,1.5906425E2,6.0415735E2,6.463831E1,1.4164374E4,7.1082334E3,2.303783E4,8.859541E3,3.7791968E2,7.733395E2,2.5373638E3,6.263284E1,4.977202E3,1.0825525E2,1.152726E3,3.7363004E2,4.384903E1,3.661965E1,7.845249E2,3.630034E3,1.7619946E1,2.5556746E2,7.5896606E2,4.084913E2,8.423211E2,3.321529E2,3.4552637E2,1.6963589E3,6.805533E2,1.2909022E3,2.007134E3,7.1872296E2,2.8910519E1,3.5727795E1,8.252179E3,5.9121953E3,5.610676E3,1.4975575E3,8.520971E3,1.451686E4,8.842771E3,1.6769371E1,1.1880791E2,2.5911176E2,1.9184996E2,5.814895E2,6.5010144E2,1.8872622E3,3.0156906E1,3.2475933E1,4.3169717E3,6.602303E2,2.833921E1,7.991604E1,7.8402954E2,3.6869632E2,3.1263812E2,6.0991932E1,1.9224035E1,2.4624992E1],"tree_param":{"num_deleted":"0","num_feature":"73","num_nodes":"99","size_leaf_vector":"1"}},{"base_weights":[-9.1439765E-4,9.5617634E-1,-3.1260028E-1,8.1213653E-1,1.3042455E0,-4.0123716E-1,4.2421058E-1,6.155298E-1,9.938163E-1,1.3196787E0,1.1823739E0,-4.7684422E-1,6.6460764E-1,3.4936538E-1,6.659833E-1,7.4962306E-1,3.471622E-1,8.946756E-1,1.1031753E0,1.3257698E0,5.633086E-2,6.4033635E-2,1.129467E0,-2.33441E-1,-6.4081615E-1,7.3728734E-1,3.5669708E-1,2.7781042E-1,5.501899E-1,7.02199E-1,-2.8034005E-2,2.638961E-1,7.803674E-1,7.6860166E-1,-7.002387E-2,7.779067E-1,1.0154876E0,8.372796E-1,1.1410776E0,1.3304864E0,5.796039E-2,1.0260834E0,6.3251786E-2,-9.814996E-2,-5.6482244E-1,-5.307627E-1,-9.306915E-1,5.206169E-1,8.34545E-1,4.3107122E-1,-2.0288923E-1,6.8158776E-2,2.6321778E-1,5.699916E-1,1.7769685E-1,6.519689E-1,9.0743876E-1,8.135832E-1,-5.2472092E-2,3.541109E-2,6.4178677E-3,4.3462075E-2,2.7761733E-2,3.1245122E-2,5.1707994E-2,-7.3180194E-3,5.604996E-2,4.7056697E-2,3.6109176E-2,4.631236E-2,5.337873E-2,-7.4922033E-3,4.3124046E-2,6.488763E-2,5.444006E-2,6.67968E-2,5.985803E-2,5.269788E-2,2.096743E-2,-1.3243851E-2,1.1691944E-2,-3.214064E-2,7.974781E-3,-2.4045225E-2,-5.3109962E-2,-5.0530095E-2,-3.4546707E-2,1.1176047E-2,3.3178445E-2,5.3237654E-2,3.564393E-2,3.4448266E-2,1.15511585E-2,-3.5622578E-2,1.4802518E-2,1.4548349E-2,-5.1161554E-2,2.9700786E-2,1.2488031E-2,-1.4168342E-2,1.809331E-2,3.7381567E-2,2.3607666E-2,4.2456627E-2,5.7917397E-2,2.6997967E-2,4.866141E-2],"categories":[],"categories_nodes":[],"categories_segments":[],"categories_sizes":[],"default_left":[0,0,0,0,0,0,0,0,0,0,0,0,0,0,0,0,0,0,0,0,0,0,0,0,0,0,0,0,0,0,0,0,0,0,0,0,0,0,0,0,0,0,0,0,0,0,0,0,0,0,0,0,0,0,0,0,0,0,0,0,0,0,0,0,0,0,0,0,0,0,0,0,0,0,0,0,0,0,0,0,0,0,0,0,0,0,0,0,0,0,0,0,0,0,0,0,0,0,0,0,0,0,0,0,0,0,0],"id":14,"left_children":[1,3,5,7,9,11,13,15,17,19,21,23,25,27,29,31,33,35,37,39,-1,-1,41,43,45,47,49,51,53,55,57,59,61,63,65,67,69,71,73,75,-1,77,-1,79,81,83,85,87,89,91,93,-1,95,97,99,101,103,105,-1,-1,-1,-1,-1,-1,-1,-1,-1,-1,-1,-1,-1,-1,-1,-1,-1,-1,-1,-1,-1,-1,-1,-1,-1,-1,-1,-1,-1,-1,-1,-1,-1,-1,-1,-1,-1,-1,-1,-1,-1,-1,-1,-1,-1,-1,-1,-1,-1],"loss_changes":[2.4942488E4,1.027459E3,4.119506E3,5.1774414E2,7.930664E0,4.5376367E3,1.2200464E2,2.5075269E2,7.968213E1,3.0175781E0,4.8223877E-1,2.0978623E3,8.28374E1,7.400354E1,4.0288574E1,6.901465E1,4.1008688E2,5.4260742E1,3.398047E1,7.060547E-1,0E0,0E0,3.756897E0,9.486846E2,1.0009131E3,6.2541748E1,3.001487E1,5.964322E1,9.7361145E0,1.4326782E1,7.1423836E1,1.6620049E1,8.648364E1,4.2811157E1,1.0690927E2,1.6922607E1,6.862671E0,1.1638794E1,2.2557617E1,1.6992188E-1,0E0,3.6609802E0,0E0,8.321347E2,3.4682043E2,6.0219385E2,1.6398145E2,3.9531677E1,5.6496582E1,3.2256363E1,2.213801E1,0E0,1.3521747E2,9.527008E0,6.3001285E0,2.0301147E1,2.1227264E0,7.861538E-1,0E0,0E0,0E0,0E0,0E0,0E0,0E0,0E0,0E0,0E0,0E0,0E0,0E0,0E0,0E0,0E0,0E0,0E0,0E0,0E0,0E0,0E0,0E0,0E0,0E0,0E0,0E0,0E0,0E0,0E0,0E0,0E0,0E0,0E0,0E0,0E0,0E0,0E0,0E0,0E0,0E0,0E0,0E0,0E0,0E0,0E0,0E0,0E0,0E0],"parents":[2147483647,0,0,1,1,2,2,3,3,4,4,5,5,6,6,7,7,8,8,9,9,10,10,11,11,12,12,13,13,14,14,15,15,16,16,17,17,18,18,19,19,22,22,23,23,24,24,25,25,26,26,27,27,28,28,29,29,30,30,31,31,32,32,33,33,34,34,35,35,36,36,37,37,38,38,39,39,41,41,43,43,44,44,45,45,46,46,47,47,48,48,49,49,50,50,52,52,53,53,54,54,55,55,56,56,57,57],"right_children":[2,4,6,8,10,12,14,16,18,20,22,24,26,28,30,32,34,36,38,40,-1,-1,42,44,46,48,50,52,54,56,58,60,62,64,66,68,70,72,74,76,-1,78,-1,80,82,84,86,88,90,92,94,-1,96,98,100,102,104,106,-1,-1,-1,-1,-1,-1,-1,-1,-1,-1,-1,-1,-1,-1,-1,-1,-1,-1,-1,-1,-1,-1,-1,-1,-1,-1,-1,-1,-1,-1,-1,-1,-1,-1,-1,-1,-1,-1,-1,-1,-1,-1,-1,-1,-1,-1,-1,-1,-1],"split_conditions":[-1.3161044E0,3.5686145E0,3.6194627E0,2.7910964E0,1.8924749E0,4.9038677E0,1.3473849E0,8.02295E-1,-1.1964939E0,4.7639194E0,-4.9195626E-1,-6.4128146E-2,8.02295E-1,8.656764E-1,1.1063287E0,1.1063287E0,8.417644E-1,6.674436E0,8.584142E-1,4.513504E0,5.633086E-2,6.4033635E-2,6.394043E-1,8.02295E-1,8.02295E-1,2.7910964E0,1.3473849E0,-6.4128146E-2,3.6981692E0,3.1027296E0,-6.4128146E-2,-1.005921E0,6.8265977E0,-1.1964939E0,1.2851827E1,-7.143598E-1,-4.318169E-1,-1.0769324E0,-7.143598E-1,3.1027296E0,5.796039E-2,3.6157098E0,6.3251786E-2,1.1063287E0,1.5035297E0,5.080652E0,1.8924749E0,-7.143598E-1,-4.227987E-1,-1.3123755E-1,1.8924749E0,6.8158776E-2,1.1063287E0,3.2144032E0,1.0919485E0,6.439483E0,1.5444927E0,1.8924749E0,-5.2472092E-2,3.541109E-2,6.4178677E-3,4.3462075E-2,2.7761733E-2,3.1245122E-2,5.1707994E-2,-7.3180194E-3,5.604996E-2,4.7056697E-2,3.6109176E-2,4.631236E-2,5.337873E-2,-7.4922033E-3,4.3124046E-2,6.488763E-2,5.444006E-2,6.67968E-2,5.985803E-2,5.269788E-2,2.096743E-2,-1.3243851E-2,1.1691944E-2,-3.214064E-2,7.974781E-3,-2.4045225E-2,-5.3109962E-2,-5.0530095E-2,-3.4546707E-2,